-0.06380448490381241
0.032092999666929245
-0.12927529215812683
0.08928176015615463
0.10337835550308228
-0.17405907809734344
0.08544082194566727
0.08708629012107849
0.07092185318470001
-0.029910754412412643
0.08310319483280182
-0.0889647901058197
0.16211016476154327
0.06652089208364487
-0.04102879762649536
-0.1570340394973755
0.16432863473892212
0.10680907219648361
-0.14936482906341553
-0.11323906481266022
-0.020521309226751328
-0.06607207655906677
-0.11152046918869019
-0.0017765143420547247
0.11228062212467194
-0.16760988533496857
0.010067762807011604
0.11157254874706268
-0.10201601684093475
-0.12087120115756989
-0.11811529844999313
-0.13925322890281677
-0.022923601791262627
-0.04062940552830696
-0.012826613150537014
-0.11358583718538284
-0.012646443210542202
-0.019169393926858902
-0.01074953842908144
0.08713941276073456
0.08980037271976471
-0.10471002757549286
-0.11070355027914047
-0.03704935684800148
0.08823230862617493
-0.08933641761541367
-0.13784092664718628
-0.13602012395858765
0.03100922703742981
0.14300358295440674
-0.1205890029668808
-0.13908275961875916
-0.04486529156565666
-0.10702847689390182
-0.025703536346554756
0.11744501441717148
0.10960031300783157
0.08287929743528366
0.05412554740905762
0.035764727741479874
-0.1276637315750122
0.03970149904489517
0.005457847844809294
0.006872872821986675
-0.08127439022064209
0.004573499783873558
-0.12190777063369751
0.03312386944890022
0.09425181895494461
-0.01831860840320587
-0.085661381483078
-0.07613935321569443
0.0654568001627922
0.025002945214509964
0.06069564446806908
0.08107834309339523
-0.06491359323263168
-0.005580670665949583
0.10945668816566467
-0.05591367930173874
0.02691817283630371
0.09531037509441376
0.045036569237709045
-0.1003105640411377
0.07486321032047272
-0.07078258693218231
0.13918688893318176
0.11561781167984009
-0.035880886018276215
0.05327731370925903
0.04595474898815155
0.03405085206031799
0.0026593953371047974
0.07695052027702332
-0.06495724618434906
-0.0359421968460083
-0.08937183022499084
0.13391518592834473
0.11619687080383301
-0.06973621994256973
-0.1266639530658722
0.07732130587100983
-0.11312446743249893
-0.03317888826131821
-0.07664620876312256
-0.15924066305160522
-0.09856859594583511
-0.11321255564689636
0.04867924377322197
-0.05407681316137314
-0.08434273302555084
0.14846763014793396
0.13278892636299133
-0.08437252789735794
0.17308883368968964
-0.0797085389494896
0.035610418766736984
0.12445114552974701
-0.09081197530031204
-0.010002397000789642
-0.01735970936715603
-0.0555027574300766
0.170024111866951
-0.1818614900112152
-0.11824887245893478
0.04786960780620575
-0.03409353643655777
0.11002058535814285
-0.1383955031633377
-0.013334940187633038
0.08774378895759583
-0.09131034463644028
0.001263699377886951
0.06239306554198265
0.14380218088626862
-0.10851681977510452
0.010946030728518963
0.14230051636695862
-0.04614371433854103
-0.015650371089577675
-0.09403657168149948
0.1263599991798401
0.05502110347151756
-0.14588437974452972
-0.1304757446050644
-0.012049893848598003
0.029146462678909302
-0.01732311211526394
0.0998256728053093
0.002660463098436594
0.03323183208703995
0.097805917263031
-0.004567291587591171
0.12718123197555542
-0.09483063966035843
0.1408025026321411
-0.03110075742006302
-0.039267949759960175
-0.14477622509002686
-0.11769815534353256
0.13506445288658142
-0.0037793517112731934
-0.042678557336330414
0.14377355575561523
-0.03015594184398651
-0.11564450711011887
0.10787659883499146
-0.004957869648933411
-0.11015921086072922
0.07020877301692963
-0.12442665547132492
-0.13214799761772156
0.12680909037590027
-0.06350662559270859
0.011282369494438171
0.030757099390029907
-0.06443562358617783
0.12795329093933105
-0.12635670602321625
0.08329640328884125
0.06645815074443817
-0.11500593274831772
-0.06009194254875183
0.16063371300697327
0.02529248781502247
-0.08168136328458786
-0.08561532944440842
-0.10033021122217178
0.032305095344781876
-0.16578787565231323
0.14085856080055237
0.040992703288793564
-0.24130389094352722
0.10645899176597595
0.10351281613111496
0.07678675651550293
0.07106481492519379
0.07596927881240845
0.04522169753909111
0.08946946263313293
0.166607066988945
-0.009938480332493782
0.14622856676578522
0.0776994600892067
0.05063885450363159
-0.05980847030878067
0.03127368539571762
-0.1394934207201004
-0.0842626541852951
0.05533206835389137
0.03347047045826912
-0.12019255012273788
0.08103003352880478
-0.08918461203575134
-0.09493345022201538
0.0861557275056839
0.1257409304380417
-0.03573095425963402
0.04709252715110779
0.11795691400766373
-0.02735629491508007
-0.12120480090379715
0.12787234783172607
0.02403932996094227
0.0754064992070198
-0.052504200488328934
-0.0664762556552887
-0.11611972749233246
0.009999889880418777
0.032473329454660416
0.03959674760699272
0.007203302811831236
-0.051250554621219635
0.06903203576803207
0.11649342626333237
0.12279727309942245
0.08972356468439102
-0.14336532354354858
-0.11486571282148361
-0.08033623546361923
0.0008977633551694453
0.1032344400882721
0.006938588339835405
0.017824718728661537
0.1390722095966339
0.004580704029649496
0.004819131456315517
0.05604639649391174
-0.10820765793323517
-0.13367195427417755
-0.08992879837751389
0.00023784970107953995
0.07049696892499924
0.10873854160308838
0.0947205200791359
-0.14100904762744904
0.11115194112062454
0.06764040887355804
-0.09236105531454086
0.058033186942338943
-0.05816623568534851
-0.1032666563987732
0.06625992059707642
0.04917437583208084
0.0226453710347414
0.009190436452627182
-0.01968751847743988
0.027882009744644165
-0.08279235661029816
0.028004903346300125
-0.0006419385899789631
0.06996031105518341
0.0020512084010988474
-0.08015885204076767
0.0323958583176136
-0.07019434124231339
-0.04686867073178291
-0.016013242304325104
0.14751887321472168
0.09134769439697266
0.10028019547462463
0.13519100844860077
-0.02343067340552807
-0.05873868614435196
0.07045119255781174
-0.06040133908390999
-0.10672503709793091
0.10085155069828033
-0.11299743503332138
-0.03995513543486595
-0.042801715433597565
-0.043911971151828766
-0.0862380862236023
0.019374527037143707
-0.1108122393488884
-0.028431130573153496
0.03251788020133972
0.13161659240722656
-0.13562659919261932
0.13871507346630096
-0.07117875665426254
0.018257712945342064
-0.1244083121418953
-0.12329178303480148
-0.01772475801408291
0.028443384915590286
-0.009133202955126762
0.04301430657505989
0.03583086282014847
0.022364288568496704
-0.0871979296207428
-0.08021644502878189
-0.030679749324917793
0.049288392066955566
-0.04173709452152252
0.022502794861793518
0.04458761587738991
-0.1312406212091446
-0.04354716092348099
-0.16996701061725616
-0.04567176103591919
0.01179485209286213
-0.02449989505112171
0.09011803567409515
-0.2163456380367279
0.10131943225860596
0.036888957023620605
0.16518869996070862
0.17369802296161652
-0.13574539124965668
-0.09251735359430313
0.1250152885913849
0.09965360164642334
-0.1418275237083435
0.10889413207769394
0.14579959213733673
0.007206324487924576
0.006049681454896927
-0.07178232073783875
0.01699914038181305
-0.01597706973552704
0.08376297354698181
-0.022952981293201447
0.07523021101951599
0.05445781350135803
-0.10626666247844696
-0.07759566605091095
-0.14295628666877747
0.04401503503322601
0.04163573682308197
-0.06442957371473312
-0.057100407779216766
-0.08226922899484634
0.052427783608436584
-0.0681692436337471
-0.09777184575796127
-0.14355134963989258
-0.09179970622062683
-0.0852750688791275
0.015009477734565735
0.03432941436767578
0.04823598265647888
-0.06717319786548615
-0.022993944585323334
-0.11973098665475845
0.13966186344623566
0.03163920342922211
-0.12717096507549286
-0.12983092665672302
-0.03527567908167839
-0.11994831264019012
0.14530973136425018
0.0006902221939526498
0.07620568573474884
0.14665468037128448
-0.01916712522506714
0.06940282136201859
-0.10055217891931534
0.1437089592218399
0.1377066820859909
0.05046749860048294
0.014964254572987556
0.04149032384157181
-0.04134546220302582
0.07952435314655304
-0.1251598447561264
0.04526681452989578
0.01769470050930977
0.14023536443710327
0.09215276688337326
-0.03268352150917053
-0.03463805839419365
-0.12315934151411057
-0.1460808664560318
-0.13082295656204224
0.03405831754207611
0.02600654773414135
-0.10267675668001175
-0.05797278508543968
-0.0887812152504921
-0.08185679465532303
-0.06853711605072021
-0.12893046438694
0.08409208804368973
-0.12799493968486786
0.014801266603171825
0.1247817873954773
-0.11528033763170242
0.093223936855793
0.07406309992074966
-0.004244807176291943
0.08579370379447937
0.027507778257131577
-0.07644186913967133
0.042076338082551956
0.01537490077316761
0.13893571496009827
-0.1351669430732727
0.12061969190835953
-0.1406763792037964
0.04670164734125137
0.016226153820753098
0.12167609483003616
0.05163169279694557
-0.12138020992279053
-0.11131898313760757
-0.005978409666568041
0.007298637181520462
0.07010238617658615
-0.026140522211790085
0.11541077494621277
0.03509306162595749
-0.15006521344184875
0.14851170778274536
-0.04617861658334732
-0.1116790622472763
-0.08818032592535019
0.05043023079633713
-0.07698670029640198
0.12401997298002243
0.052584316581487656
0.04631748050451279
-0.12663738429546356
-0.007038046605885029
0.08599897474050522
-0.015675706788897514
-0.07096786797046661
-0.03716336563229561
-0.10728416591882706
-0.10351546853780746
-0.1521937996149063
0.09569378942251205
0.07256413251161575
0.02765415422618389
-0.03446497023105621
0.08523435145616531
-0.023326732218265533
0.023373298346996307
-0.13331474363803864
0.032986946403980255
0.10084556043148041
0.12073293328285217
-0.038946233689785004
-0.14387796819210052
0.11930525302886963
0.008370127528905869
-0.07332886755466461
0.05601062253117561
0.11710545420646667
0.08349544554948807
-0.132517471909523
-0.04768062382936478
-0.14517131447792053
-0.04666346684098244
0.0774618536233902
0.061321768909692764
0.12117758393287659
-0.0835324078798294
0.1365094631910324
-0.0003979555331170559
-0.029286665841937065
0.0960194543004036
0.014839477837085724
-0.1272655576467514
0.07803194224834442
-0.05374851077795029
-0.06023450940847397
0.007075066212564707
0.07933316379785538
-0.09999056905508041
0.04424590617418289
0.013691531494259834
0.0288027822971344
0.1282692700624466
-0.08224840462207794
0.017594555392861366
0.019124947488307953
-0.0351874977350235
-0.10008867084980011
0.0706760510802269
-0.03747384622693062
0.12375254184007645
-0.04000306874513626
-0.06854476034641266
0.06676982343196869
0.12043434381484985
0.05212536081671715
-0.031187044456601143
-0.021255644038319588
-0.040362365543842316
-0.01439820509403944
-0.07961053401231766
0.06160857528448105
0.09642419964075089
-0.14158785343170166
-0.06519382447004318
-0.1000884622335434
-0.06135426461696625
-0.12839317321777344
-0.10786141455173492
0.0870572105050087
-0.02569829672574997
-0.13612326979637146
-0.08573538064956665
-0.14250577986240387
0.18005624413490295
-0.21259258687496185
0.1636073887348175
0.13715851306915283
0.11807387322187424
0.015872934833168983
-0.2218770831823349
0.1596357673406601
-0.02378915809094906
-0.013760247267782688
0.006889332085847855
-0.1665467917919159
0.11817027628421783
-0.06188226118683815
0.10203256458044052
0.07225438207387924
0.12658162415027618
0.07775182276964188
0.15762002766132355
0.04718887060880661
-0.010775811970233917
0.12858596444129944
-0.11567343026399612
-0.1473420262336731
0.009908878244459629
0.11169528216123581
0.11787315458059311
-0.11965897679328918
-0.13583284616470337
0.025410164147615433
0.0032266888301819563
-0.12719306349754333
0.06397746503353119
-0.04197213798761368
0.1436094343662262
0.1456502079963684
-0.04031951352953911
0.05272217467427254
0.145857572555542
0.12590181827545166
-0.08616936951875687
-0.001532302820123732
-0.1546039581298828
0.02283579483628273
-0.12867188453674316
0.0990447998046875
-0.14648976922035217
0.08363386988639832
0.1259717047214508
0.06885108351707458
-0.10779804736375809
-0.0034775605890899897
-0.04371275752782822
0.07043622434139252
0.013927338644862175
0.04423787444829941
-0.013202816247940063
-0.03541513904929161
0.1436268538236618
0.04493280127644539
0.019113464280962944
0.00921513419598341
0.06866046786308289
-0.0706862062215805
0.01470940187573433
-0.08690432459115982
0.1334959864616394
0.06262508779764175
0.08406564593315125
0.07517123967409134
-0.039057936519384384
0.06757687032222748
0.09506476670503616
-0.0039451271295547485
-0.09328263252973557
0.13939309120178223
0.07183326780796051
-0.1252298653125763
0.14310818910598755
0.10826802253723145
-0.03137577325105667
0.03466726839542389
-0.04659012705087662
0.07509903609752655
0.08807051181793213
-0.017796814441680908
0.07751090824604034
-0.1368507444858551
-0.10887309163808823
-0.09043596684932709
0.02911756932735443
0.08954174816608429
-0.015774250030517578
0.0991872251033783
-0.026619471609592438
0.024489983916282654
-0.023302733898162842
-0.10008969157934189
0.04612492024898529
0.08544057607650757
0.08235357701778412
-0.15297217667102814
-0.04508042708039284
-0.17407307028770447
0.033890772610902786
0.04298516735434532
0.07701334357261658
-0.15159066021442413
0.038484565913677216
-0.10537907481193542
0.15333186089992523
-0.024567654356360435
0.1360691338777542
-0.09409850090742111
-0.020895004272460938
-0.14898651838302612
-0.014442402869462967
-0.047385621815919876
-0.09530740976333618
-0.034406282007694244
-0.022973626852035522
0.01323026418685913
0.009018175303936005
0.04825017973780632
-0.16896182298660278
-0.0802362710237503
-0.08186812698841095
0.10550669580698013
0.014126618392765522
-0.13162870705127716
0.08696354180574417
0.026271698996424675
0.09927815943956375
0.03965888172388077
-0.026270447298884392
-0.04366025701165199
0.11350331455469131
0.08647124469280243
-0.017744723707437515
0.08454930782318115
0.12695592641830444
-0.06312903016805649
0.04874793812632561
0.1216086596250534
0.10578230768442154
-0.03565526008605957
0.06485744565725327
0.1300405114889145
0.08894972503185272
-0.004386905115097761
-0.006272913422435522
0.011075899004936218
-0.13060657680034637
-0.0666593685746193
0.12187117338180542
-0.08635548502206802
-0.06257140636444092
0.060009315609931946
-0.05395437777042389
0.07178521156311035
0.11347156763076782
-0.1191883459687233
-0.08671817183494568
0.02414683997631073
0.11291232705116272
-0.06349379569292068
-0.04479093849658966
0.013996526598930359
0.1189708411693573
0.009879082441329956
-0.05072934180498123
0.006535351276397705
-0.05944927781820297
-0.03694133460521698
0.02088680863380432
0.028782114386558533
-0.142560213804245
0.0008842228562571108
-0.13753856718540192
0.08008799701929092
0.026136286556720734
-0.04436425119638443
0.12180893123149872
-0.0004939797217957675
0.04677088186144829
-0.14680901169776917
0.045710641890764236
-0.08008075505495071
0.06456729769706726
0.1076427474617958
0.03831182047724724
0.10504280775785446
0.0985155999660492
-0.06405176967382431
-0.061090197414159775
0.04137948900461197
0.09936849772930145
-0.04716014117002487
-0.1174730435013771
0.12527374923229218
-0.10747022181749344
-0.023870838806033134
0.10291329771280289
0.11654587090015411
0.029489219188690186
-0.03325666859745979
0.02985936403274536
-0.06405184417963028
0.028055546805262566
0.03377285599708557
0.08748410642147064
0.01081219781190157
-0.04237436503171921
-0.10416625440120697
-0.13528399169445038
-0.1230378970503807
-0.08608821034431458
-0.017772017046809196
0.10825613886117935
0.011991849169135094
0.03306511789560318
-0.008880481123924255
0.07204942405223846
-0.1147867739200592
-0.016558930277824402
0.04302026331424713
0.10392510890960693
0.08162662386894226
0.010822108946740627
0.1158369705080986
-0.014926939271390438
0.002755931345745921
-0.08260612934827805
-0.08234292268753052
-0.14449767768383026
-0.08876043558120728
0.08115895837545395
-0.05352184921503067
-0.0782918855547905
0.12592315673828125
-0.06742841750383377
-0.052949681878089905
0.13465429842472076
0.04788518324494362
-0.014843521639704704
0.004829671699553728
0.06441710889339447
-0.022975165396928787
-0.032170940190553665
-0.04292914271354675
-0.03323499113321304
0.08612969517707825
-0.10804880410432816
0.10186965018510818
-0.003866310929879546
-0.02790665253996849
-0.10498307645320892
0.007373821455985308
-0.1215418130159378
-0.10460115969181061
-0.12079145014286041
-0.006374283693730831
0.10411567986011505
-0.03707851096987724
0.12093557417392731
-0.11319472640752792
0.03363937512040138
-0.08529359102249146
-0.07412629574537277
-0.06450602412223816
-0.07531405985355377
-0.02249433659017086
-0.09775937348604202
0.10579033941030502
-0.05182122811675072
0.050318121910095215
-0.03696654736995697
-0.03140370920300484
0.06877370178699493
0.07153989374637604
-0.002886676462367177
0.0073587107472121716
0.03501417115330696
0.04889846220612526
-0.05031510815024376
0.13196104764938354
0.11141824722290039
-0.12538354098796844
-0.051276471465826035
0.0019532868172973394
-0.15039557218551636
0.07317923754453659
-0.004228898789733648
-0.11494318395853043
0.06456657499074936
-0.094558484852314
-0.01633509248495102
-0.11305931955575943
0.09642935544252396
-0.00768436212092638
0.05467729642987251
0.036922138184309006
0.0037729605101048946
-0.005770181771367788
0.0514494813978672
-0.03759113699197769
0.09472496807575226
0.03702942654490471
0.15212997794151306
0.10302915424108505
0.11931891739368439
0.2031618058681488
-0.14753738045692444
0.09933113306760788
0.12392320483922958
0.17994041740894318
0.12297562509775162
-0.24989189207553864
-0.14964015781879425
-0.04199836030602455
-0.05186397209763527
0.0051786210387945175
-0.04477618634700775
0.0524374358355999
-0.06939627975225449
0.09906929731369019
0.13235986232757568
-0.06389858573675156
-0.2260633111000061
-0.00022806516790296882
-0.14494454860687256
-0.08531437069177628
0.16038234531879425
0.13357998430728912
0.18855461478233337
-0.00972969550639391
0.14338479936122894
-0.15081122517585754
-0.13052016496658325
-0.009022890590131283
-0.03444686904549599
-0.05168881639838219
-0.08564995229244232
-0.20161347091197968
-0.03901268169283867
0.010068576782941818
0.12859153747558594
-0.16601888835430145
0.003852960653603077
0.09708702564239502
0.1241888552904129
0.1673537939786911
-0.014335975982248783
0.12427357584238052
0.18346406519412994
0.056116558611392975
-0.05986812710762024
0.06848092377185822
-0.07287031412124634
-0.13613571226596832
-0.09308816492557526
0.15785014629364014
0.15560556948184967
-0.12308140844106674
-0.2246236801147461
0.14035747945308685
-0.09664487093687057
0.05387977138161659
0.1879330575466156
-0.11347471922636032
0.13424958288669586
0.019554294645786285
-0.11720293015241623
0.18043290078639984
-0.18228429555892944
-0.06854867190122604
-0.10936969518661499
0.12990617752075195
-0.2004186064004898
0.17914476990699768
-0.14158892631530762
-0.16829034686088562
0.18006059527397156
0.07298902422189713
0.14438936114311218
-0.05916547775268555
-0.022267302498221397
-0.13556253910064697
0.016112279146909714
0.04437941685318947
0.11481364071369171
0.030702147632837296
0.08590111881494522
-0.02911997400224209
-0.12244769185781479
0.03549417853355408
-0.12548157572746277
-0.0572514645755291
0.0947413370013237
0.023695992305874825
0.016107525676488876
0.0393349714577198
-0.02753964066505432
0.02045714482665062
0.019918493926525116
0.0240926630795002
0.10225022584199905
0.026059120893478394
-0.0025138105265796185
0.09886453300714493
-0.11719182133674622
0.15343816578388214
-0.14148758351802826
-0.08267851918935776
0.11712849140167236
0.01856190711259842
0.04830049350857735
-0.2333981841802597
-0.019645193591713905
0.14504770934581757
0.08260949701070786
0.17844419181346893
0.09284062683582306
0.13038793206214905
0.17445309460163116
-0.14981384575366974
-0.15932853519916534
0.0003704405971802771
-0.07174677401781082
-0.1404072642326355
-0.16221894323825836
0.1028517335653305
0.188407301902771
-0.0017792526632547379
0.1450083702802658
-0.008812989108264446
-0.204426109790802
-0.004620879888534546
-0.1248122975230217
-0.11561518907546997
-0.09798509627580643
0.12331482768058777
0.095769003033638
-0.0406326949596405
0.06587459146976471
0.032938405871391296
-0.017977938055992126
0.03458860516548157
-0.013539806008338928
0.040002986788749695
-0.11616362631320953
-0.02173895388841629
0.09147877991199493
-0.007712751626968384
-0.08071678876876831
0.11941981315612793
-0.11648815870285034
0.09595169126987457
0.05359138548374176
-0.0016818493604660034
-0.0554422065615654
-0.005640670657157898
0.053295671939849854
0.13343745470046997
-0.04717453941702843
0.0770672932267189
0.021794423460960388
0.030046846717596054
0.13071544468402863
0.03431544825434685
-0.14771701395511627
-0.09027514606714249
0.05052763596177101
0.12445560097694397
-0.13111649453639984
-0.12634648382663727
-0.006356375757604837
0.10301129519939423
0.017305755987763405
0.08889029175043106
-0.013844164088368416
0.12701725959777832
0.14499300718307495
-0.12945157289505005
0.13411930203437805
0.03340396657586098
0.028489764779806137
-0.041053395718336105
-0.1060556024312973
-0.0034097766038030386
-0.005350938066840172
0.07779092341661453
0.04468076303601265
0.033575527369976044
0.12335321307182312
0.054274383932352066
-0.1274552196264267
0.1459488421678543
0.04255570098757744
-0.06995938718318939
0.10097217559814453
-0.1370907425880432
-0.11388643085956573
-0.08314932137727737
-0.022495824843645096
-0.10612240433692932
-0.11552602797746658
0.14016737043857574
0.027780963107943535
-0.0532769113779068
0.1330137848854065
0.04536685347557068
0.040742166340351105
0.1266387701034546
-0.013885480351746082
0.025638816878199577
-0.10522811859846115
-0.07483835518360138
0.13220876455307007
-0.0754597932100296
-0.08606395870447159
0.1418251097202301
0.05402388423681259
0.0646170973777771
-0.04151758551597595
0.014546511694788933
0.14572539925575256
0.12097752839326859
0.08965585380792618
0.09316249936819077
-0.08579851686954498
0.0003308690502308309
0.010986151173710823
0.1023705005645752
0.06166042014956474
0.024502722546458244
0.035914890468120575
0.04529108479619026
0.09219538420438766
-0.12262163311243057
0.016848718747496605
-0.06719686836004257
-0.08962316066026688
-0.15006105601787567
-0.11283081024885178
-0.02354235015809536
-0.10085183382034302
-0.01439934503287077
0.1199098750948906
-0.10541234910488129
0.06302841752767563
0.027471860870718956
0.001065608928911388
-0.01999993994832039
-0.1092291846871376
0.13022591173648834
-0.12373027205467224
-0.1229935735464096
0.08382585644721985
-0.06858664751052856
0.11940503865480423
0.06461738795042038
0.06359538435935974
-0.052082277834415436
0.09485625475645065
0.08848541229963303
-0.06596819311380386
-0.038425564765930176
-0.07525044679641724
-0.0018646552925929427
-0.13478292524814606
0.061931900680065155
-0.06194669380784035
-0.10755697637796402
-0.02327149361371994
-0.09765713661909103
0.03585795313119888
-0.14062362909317017
0.05601823329925537
-0.052765946835279465
0.1012621521949768
-0.0679936408996582
-0.030836094170808792
-0.07731039822101593
-0.11010722815990448
0.14953435957431793
0.07066994905471802
0.11747026443481445
-0.09136025607585907
0.052229493856430054
-0.12635719776153564
0.08020748198032379
-0.11362411081790924
-0.1193295493721962
-0.09344097971916199
-0.06435662508010864
-0.159536212682724
0.0479838028550148
-0.09991227835416794
-0.003833816619589925
-0.050194963812828064
-0.055060338228940964
0.13614623248577118
-0.10603383183479309
-0.1589597463607788
0.07618188858032227
-0.10194119065999985
-0.08299332112073898
-0.09024885296821594
0.06960802525281906
-0.15589416027069092
0.15738822519779205
-0.07815185189247131
-0.04983409866690636
-0.1028396487236023
0.1204240545630455
0.07444669306278229
-0.11015750467777252
0.036956120282411575
-0.13572613894939423
0.15840952098369598
-0.013906298205256462
0.13371215760707855
0.09909667074680328
0.10334040224552155
0.10125710815191269
0.11449993401765823
0.10760601609945297
0.013207001611590385
-0.09928403049707413
0.1217648833990097
-0.08359386771917343
-0.13992980122566223
0.1379680335521698
-0.10731856524944305
0.07692093402147293
-0.1405654400587082
0.03988919407129288
0.1292324811220169
0.10700500011444092
-0.14929592609405518
-0.0855695903301239
-0.21558155119419098
-0.006363379303365946
-0.0258339773863554
0.11967796087265015
-0.035260118544101715
-0.015813663601875305
-0.13191211223602295
-0.04838433861732483
0.13172996044158936
-0.04387693107128143
-0.09091977775096893
0.07900096476078033
-0.05547354370355606
-0.022518165409564972
0.07354512810707092
0.06831738352775574
-0.008975088596343994
0.03611016273498535
-0.07137901335954666
-0.02093908190727234
0.06084407866001129
-0.10725638270378113
0.031001299619674683
0.10670936107635498
0.04242764413356781
-0.061264000833034515
-0.10176827013492584
0.01699969172477722
0.01812128722667694
0.12175747752189636
-0.06513717770576477
0.02586767077445984
-0.1049727201461792
0.03922030329704285
-0.06089578568935394
-0.1330508142709732
-0.10029873251914978
-0.040118731558322906
0.08533284068107605
-0.12745589017868042
0.08503563702106476
0.0974934846162796
0.14179670810699463
-0.007341623306274414
-0.10049080848693848
0.13991045951843262
-0.045880988240242004
0.025040224194526672
0.13410967588424683
-0.13359881937503815
0.08454935252666473
0.09330429136753082
-0.12061141431331635
-0.13850216567516327
0.05489534139633179
0.014884761534631252
0.04367327690124512
-0.11553086340427399
-0.0028520384803414345
0.0505111962556839
0.010595018975436687
0.07314395159482956
-0.09618654102087021
0.08264170587062836
0.0014385179383680224
-0.12448349595069885
0.12171857804059982
-0.12275846302509308
-0.03664667159318924
-0.09261056780815125
-0.22952643036842346
-0.1358136087656021
-0.17950524389743805
-0.018944203853607178
0.1669825315475464
0.052447594702243805
-0.04378615319728851
-0.07738286256790161
0.14896854758262634
0.17120502889156342
0.12323255091905594
0.11136728525161743
-0.06783270090818405
-0.0781797468662262
0.0804753229022026
0.07573644071817398
0.12560325860977173
0.10387062281370163
0.06734100729227066
-0.1320645958185196
-0.004892139229923487
-0.03459044173359871
0.06658509373664856
0.011026322841644287
-0.02745399810373783
0.07979296892881393
-0.059363290667533875
-0.0701337456703186
-0.08354362100362778
0.1185942217707634
0.08039575070142746
0.047824788838624954
-0.01801682636141777
0.07312745600938797
-0.0037444697227329016
0.08362589031457901
-0.12484607100486755
-0.0035092446487396955
-0.1198170855641365
-0.03477936610579491
-0.15412573516368866
0.12794078886508942
0.04440636560320854
0.12164348363876343
-0.05634065717458725
0.1396932154893875
-0.2478175312280655
0.03810635209083557
0.1489717811346054
0.13518689572811127
0.13055463135242462
0.05963543429970741
-0.005463401321321726
-0.022626999765634537
-0.006543163675814867
0.06447681784629822
0.14176733791828156
0.0042511760257184505
0.04466743767261505
-0.15275274217128754
-0.05140333250164986
-0.04818292334675789
-0.07170432060956955
-0.05423711985349655
-0.03876809775829315
0.08378292620182037
0.05139723792672157
0.11776186525821686
-0.1473342478275299
-0.1348554491996765
-0.11454389989376068
0.057218875735998154
-0.06599262356758118
-0.0826876237988472
0.00493683572858572
-0.10501239448785782
-0.004015888087451458
0.03762957081198692
-0.04670995846390724
-0.06567750126123428
0.009516971185803413
-0.021781064569950104
-0.05435693636536598
-0.13777963817119598
-0.14237730205059052
-0.050152234733104706
0.0660109892487526
-0.07513410598039627
-0.133422389626503
0.12730491161346436
-0.009937462396919727
0.10717184096574783
0.0514889657497406
-0.07093328982591629
0.1123594343662262
-0.038454025983810425
-0.012983092106878757
-0.04325571283698082
-0.09975064545869827
0.06837677955627441
0.05710161477327347
0.05635307356715202
0.03723162040114403
0.13495130836963654
0.012162618339061737
-0.12979885935783386
0.12131959199905396
-0.02363523468375206
0.05308476835489273
-0.08417453616857529
0.08893606811761856
0.08097928762435913
0.07502304017543793
0.13344471156597137
-0.11043886095285416
0.05840184539556503
-0.055203963071107864
0.022559314966201782
-0.03557752072811127
0.06083492934703827
0.08446010947227478
0.11319518834352493
-0.08244029432535172
0.0923154354095459
0.027976779267191887
0.03593352064490318
0.058767225593328476
-0.09857272356748581
-0.1013483926653862
-0.09745485335588455
0.03428395092487335
0.09145928919315338
0.00031040533212944865
0.017962442710995674
-0.02953507751226425
-0.08890373259782791
0.027147110551595688
0.002312080003321171
-0.12060520797967911
-0.1131739392876625
0.011585662141442299
-0.14365842938423157
0.10333464294672012
0.07854367047548294
0.012718440964818
-0.048966336995363235
-0.13201475143432617
-0.01972724124789238
0.00013552852033171803
-0.07424132525920868
0.03099992498755455
-0.14156509935855865
0.1203974187374115
-0.08132769167423248
0.10693741589784622
-0.008071244694292545
0.06399977207183838
-0.09756239503622055
-0.09707130491733551
-0.08847420662641525
-0.12873147428035736
0.04409159719944
0.09410014748573303
0.0033676547463983297
-0.10033833980560303
0.12888938188552856
0.03745993971824646
0.07021185755729675
-0.2414860874414444
0.16724371910095215
-0.07464606314897537
-0.21137714385986328
-0.09047415107488632
0.04849200323224068
0.09162300080060959
-0.03405587002635002
-0.1545330435037613
0.04826274514198303
-0.1497638076543808
-0.18453042209148407
-0.0011516072554513812
0.14311932027339935
-0.0841548889875412
0.10443329066038132
0.12658673524856567
-0.09580380469560623
-0.07297655194997787
-0.06581225246191025
-0.15739014744758606
0.19039727747440338
0.13791592419147491
-0.020934423431754112
-0.05433782935142517
-0.12092859297990799
-0.1355438530445099
-0.08619861304759979
-0.05690130218863487
-0.14549602568149567
0.1322477012872696
-0.04551690071821213
-0.07733457535505295
-0.09761804342269897
0.012742779217660427
-0.08959953486919403
0.10451764613389969
-0.09734930098056793
0.06750775873661041
0.018009258434176445
-0.02954348735511303
-0.09171686321496964
-0.11392153799533844
-0.05661098659038544
-0.02586991898715496
-0.04073692858219147
-0.09062204509973526
0.0018115997081622481
-0.03190348669886589
-0.013589706271886826
0.13463124632835388
0.08711425215005875
-0.041186608374118805
-0.09082513302564621
0.12831589579582214
0.0973852276802063
-0.12727966904640198
0.0002287059323862195
-0.1501416116952896
0.006924450863152742
-0.12115006148815155
-0.031530458480119705
-0.03700953722000122
-0.14864341914653778
0.08534476161003113
-0.10739270597696304
-0.037793874740600586
-0.12081547826528549
0.07124120742082596
-0.004183995071798563
-0.11347130686044693
0.06577138602733612
0.09215334802865982
-0.11146359890699387
-0.06899575144052505
0.11571706086397171
-0.14928483963012695
-0.11697419732809067
-0.056048084050416946
0.07463089376688004
0.08431899547576904
-0.12324441224336624
-0.12270940840244293
0.016397731378674507
-0.09644157439470291
-0.024920174852013588
0.14351512491703033
-0.13213567435741425
-0.008929315954446793
0.01197653729468584
0.06983920931816101
-0.11578741669654846
0.04416520521044731
-0.06392562389373779
0.13369779288768768
0.004612421151250601
-0.009365305304527283
-0.12394997477531433
-0.03505994379520416
0.13281014561653137
0.13680356740951538
0.11236260086297989
-0.13690635561943054
0.0609905868768692
-0.09375345706939697
-0.0363876149058342
-0.004902542568743229
0.06640589237213135
-0.14803145825862885
-0.04907941073179245
-0.030290447175502777
-0.01337717566639185
0.09035270661115646
0.05646831542253494
0.09311863780021667
0.041293252259492874
-0.0934705063700676
0.09524629265069962
-0.0921289250254631
-0.04075547307729721
0.11203071475028992
0.13619418442249298
-0.09426682442426682
-0.11556664854288101
0.10631541907787323
-0.11048216372728348
0.04405057430267334
-0.02299707569181919
0.12748029828071594
0.016706246882677078
0.12955842912197113
0.025388062000274658
-0.1313508152961731
0.027840130031108856
-0.07360668480396271
-0.13933861255645752
-0.06768890470266342
-0.016005292534828186
0.027183400467038155
0.05503585934638977
-0.03269419074058533
-0.1143576130270958
0.10452445596456528
-0.06151026859879494
0.10740569233894348
0.10853282362222672
0.14601664245128632
0.13512736558914185
0.08429911732673645
-0.06500690430402756
0.13141576945781708
0.11487896740436554
0.019364699721336365
0.041364651173353195
0.13623332977294922
0.12387314438819885
-0.14313997328281403
0.05665060877799988
0.0860648900270462
-0.07665557414293289
0.04793258011341095
0.10290370881557465
0.14232182502746582
0.0258883535861969
0.12565070390701294
-0.06195293366909027
0.05854913592338562
0.08954855799674988
-0.07310610264539719
0.028896674513816833
-0.04369581490755081
-0.14089356362819672
-0.009896054863929749
-0.07433755695819855
0.08695131540298462
-0.11835230886936188
-0.09088003635406494
0.04147729277610779
0.022123277187347412
0.09814701974391937
0.0036260783672332764
-0.06215832009911537
0.016456909477710724
-0.17950978875160217
-0.08612816780805588
-0.06642982363700867
-0.12059760838747025
0.0744064524769783
-0.06686744093894958
-0.06456451117992401
-0.08162089437246323
0.16762660443782806
-0.015212845988571644
0.1091839149594307
-0.03606506809592247
-0.10972767323255539
-0.01616865023970604
-0.14433561265468597
0.09797205775976181
0.03680017963051796
0.029762577265501022
0.04422149062156677
0.0908861979842186
0.05365381017327309
-0.06725147366523743
0.019715774804353714
-0.18366679549217224
0.140508234500885
-0.04361119866371155
-0.0006119310855865479
-0.1418030560016632
0.0844242125749588
0.0974990576505661
-0.09873085469007492
-0.06305491179227829
-0.11817146837711334
-0.12964458763599396
0.09960529208183289
0.0804528295993805
0.0764697939157486
-0.020187348127365112
0.0244971364736557
0.05248554050922394
-0.035402700304985046
0.006537303328514099
0.0019245892763137817
-0.03894031047821045
-0.11808136105537415
-0.09322813153266907
0.12114220857620239
-0.05680650472640991
0.13173052668571472
0.0022011995315551758
-0.01364104449748993
-0.060811206698417664
0.0035655051469802856
0.12161761522293091
-0.12268363684415817
-0.004829823970794678
0.032991379499435425
0.025608167052268982
0.023437172174453735
0.0616379976272583
-0.06478875130414963
0.0061614662408828735
-0.10935774445533752
-0.06965570896863937
0.0029153525829315186
-0.10991775989532471
0.008805587887763977
0.013121470808982849
0.06934581696987152
-0.13839849829673767
-0.042588792741298676
0.055068254470825195
-0.1222936138510704
-0.10838468372821808
0.06685996055603027
-0.09526282548904419
-0.13794884085655212
0.08119311928749084
0.010577128268778324
0.12374788522720337
-0.008534200489521027
0.04741816222667694
0.07042412459850311
-0.06893075257539749
-0.13846710324287415
0.09283360838890076
-0.0007586026331409812
0.05279829725623131
0.08922325819730759
-0.14081676304340363
-0.11268645524978638
0.023466767743229866
0.09841776639223099
-0.1189560666680336
0.06523878872394562
0.04354173317551613
0.0707281306385994
0.08845629543066025
0.0006206344114616513
-0.11472930759191513
0.017423029989004135
0.10964520275592804
-0.05753814056515694
-0.09004824608564377
0.08211340010166168
-0.038331206887960434
-0.09307096898555756
0.12061940878629684
-0.07147680222988129
0.06095263734459877
-0.06294019520282745
0.054770659655332565
-0.0637882873415947
0.10390491783618927
-0.0066496264189481735
0.12987655401229858
0.0014041602844372392
0.015275775454938412
-0.0585368275642395
-0.11971285939216614
0.10990791767835617
-0.04830349236726761
0.09880680590867996
0.12667614221572876
-0.09311479330062866
-0.08918238431215286
0.02188531681895256
-0.00042415686766617
0.12743330001831055
0.0005524009466171265
0.10818400979042053
-0.061294712126255035
-0.06256462633609772
0.0906238704919815
0.09047390520572662
0.13453102111816406
0.031844913959503174
-0.046246111392974854
-0.11492152512073517
-0.08269674330949783
0.12155535817146301
0.05008670687675476
0.06665299832820892
0.058294087648391724
-0.03052186220884323
0.06856201589107513
-0.07465165853500366
0.09011410176753998
-0.06269034743309021
-0.1362958401441574
0.09923264384269714
-0.1191091537475586
-0.11976619809865952
-0.06477411091327667
-0.0770660787820816
0.0916251689195633
0.08471481502056122
0.04685331881046295
0.04611869156360626
-0.09650419652462006
-0.08978431671857834
0.02368152141571045
0.08844450116157532
-0.11677604168653488
0.03928501904010773
0.03251573443412781
0.006732329726219177
0.011549249291419983
0.10936129093170166
0.05873081088066101
-0.001872047781944275
-0.03163549304008484
0.028694644570350647
0.05461031198501587
0.006576657295227051
0.0720294862985611
-0.013836801052093506
-0.05634783208370209
0.07942959666252136
0.08081187307834625
-0.036238640546798706
0.0665045753121376
0.09469294548034668
-0.055492304265499115
0.07175426930189133
0.0848289504647255
0.06900126487016678
-0.08291174471378326
0.06581799685955048
0.0800463929772377
0.05062444508075714
0.10103254020214081
-0.003315327689051628
0.135515034198761
0.04328292980790138
-0.060615915805101395
-0.1171751469373703
0.11544843018054962
0.06320864707231522
0.07988524436950684
-0.08718391507863998
-0.08736489713191986
0.07713059335947037
0.09684284776449203
-0.04453306645154953
-0.017368588596582413
-0.012790841981768608
-0.10237365961074829
-0.10321589559316635
-0.05453839153051376
0.07725673913955688
0.05028100311756134
-0.07944571226835251
-0.022349420934915543
-0.08339287340641022
0.10100670158863068
-0.03885594382882118
-0.003945695236325264
0.10751834511756897
-0.14518484473228455
-0.13480471074581146
0.02625892497599125
-0.10154823958873749
0.09142628312110901
-0.13028885424137115
-0.0035697543062269688
-0.05029460787773132
0.029239177703857422
0.1137891560792923
-0.009783385321497917
-0.05872819945216179
0.01152380183339119
0.16890129446983337
-0.08957905322313309
0.11151280999183655
-0.09274230152368546
0.10249079763889313
0.01523510366678238
-0.07392600178718567
0.04386592656373978
0.0936182290315628
-0.054958526045084
0.13855226337909698
0.14565517008304596
-0.164001002907753
-0.009039541706442833
0.037783555686473846
-0.2007668912410736
0.01777609810233116
-0.17916907370090485
0.07032862305641174
0.03774397447705269
0.05934873968362808
0.0030592530965805054
0.0188892912119627
-0.004251901526004076
0.11253565549850464
-0.14959344267845154
0.08725766837596893
-0.0986655056476593
0.09639012813568115
-0.0440436527132988
-0.056050077080726624
-0.12252745032310486
0.059094518423080444
0.060597360134124756
-0.07762859761714935
-0.08366990834474564
0.106041818857193
0.11190667748451233
-0.06997676938772202
-0.044628217816352844
0.01847277581691742
-0.09035222232341766
-0.05684319883584976
0.07868483662605286
-0.019600197672843933
-0.11445517092943192
-0.11362386494874954
-0.021082885563373566
-0.04667198657989502
-0.11927323788404465
-0.12207788974046707
-0.04083409160375595
0.11307870596647263
-0.07210057228803635
0.004590279888361692
0.022497978061437607
-0.02060723677277565
0.04384298622608185
0.13768520951271057
-0.11930978298187256
-0.06375894695520401
0.12069609016180038
0.05251361057162285
0.07039880752563477
-0.10227588564157486
-0.12934529781341553
0.010901217348873615
0.11184605211019516
0.10567011684179306
0.033951498568058014
-0.014137922786176205
0.055494509637355804
0.11843784898519516
-0.03268837928771973
-0.05043672397732735
-0.10348829627037048
-0.1167011559009552
-0.03271837532520294
0.031690701842308044
-0.05105268955230713
0.04716948792338371
-0.21661385893821716
0.0702495202422142
-0.030837109312415123
-0.13682417571544647
-0.13092634081840515
0.03776184469461441
0.15728144347667694
-0.05234828591346741
-0.08298497647047043
-0.20310921967029572
-0.10989319533109665
0.13870680332183838
0.1706816405057907
0.04697095602750778
-0.020511262118816376
0.13325996696949005
-0.13791948556900024
0.06000407412648201
0.12416156381368637
0.01402813009917736
0.17438791692256927
0.13531392812728882
0.14974884688854218
0.001344105345197022
-0.049152735620737076
-0.08381063491106033
0.03423600271344185
-0.037773098796606064
-0.06900196522474289
-0.016053734347224236
-0.009563538245856762
0.0886925458908081
-0.021267246454954147
-0.05000529810786247
0.12812580168247223
0.08413548022508621
0.13138124346733093
0.08390448242425919
0.025014789775013924
0.02419138327240944
-0.11786148697137833
0.14715489745140076
0.09702124446630478
0.12985017895698547
0.049949489533901215
-0.0014107824536040425
0.11055409163236618
0.11380983889102936
0.08822224289178848
-0.07761543244123459
0.03671073541045189
0.04881760850548744
-0.11020553112030029
0.0007624354329891503
-0.07423491775989532
0.024528713896870613
-0.11726143211126328
-0.1019190177321434
0.07956971973180771
0.10212726145982742
0.13915564119815826
0.14836083352565765
0.049423348158597946
0.024452196434140205
0.14362451434135437
-0.04740864410996437
0.01802350953221321
-0.02400669828057289
0.03758992254734039
-0.09871841967105865
-0.10034823417663574
0.055724095553159714
0.0559874065220356
-0.13160231709480286
0.015915581956505775
-0.08531797677278519
0.10158427804708481
0.0485127829015255
0.09647312015295029
-0.09213875979185104
0.12541423738002777
-0.05998828634619713
-0.13497036695480347
0.1302204728126526
0.06881009042263031
0.008112878538668156
0.13501417636871338
0.1458926647901535
-0.0391107052564621
0.12609435617923737
-0.06291988492012024
-0.12492887675762177
0.06094147264957428
-0.026949968189001083
-0.05449690297245979
-0.08191271126270294
0.06978798657655716
0.024151060730218887
-0.0823189914226532
-0.09813615679740906
-0.06651927530765533
-0.12334029376506805
0.008961215615272522
-0.13889753818511963
0.094145268201828
-0.07151992619037628
0.04591725766658783
-0.12824873626232147
0.12598267197608948
-0.06115201860666275
-0.02591545134782791
0.1062459945678711
-0.07613437622785568
-0.06177814304828644
-0.1037655770778656
-0.14314109086990356
0.10615256428718567
0.04220378398895264
-0.06084219366312027
-0.00179271399974823
0.08123667538166046
0.01126086711883545
-0.07609827816486359
-0.09885191172361374
-0.11861598491668701
-0.04759420454502106
-0.06385662406682968
-0.1509598195552826
0.008269909769296646
0.10842446237802505
0.02444307506084442
0.04655035212635994
0.028094807639718056
0.1218676045536995
-0.016674935817718506
0.051568008959293365
-0.03130295127630234
-0.0703233852982521
0.14621342718601227
-0.08224914222955704
-0.16784532368183136
-0.0917627289891243
0.037970732897520065
0.024281997233629227
-0.03319445997476578
0.12725292146205902
-0.10652714222669601
0.07683690637350082
0.10597328841686249
0.175686314702034
-0.05276712775230408
0.007891816087067127
0.11160457134246826
0.12474164366722107
-0.009133048355579376
-0.06641975045204163
0.03618934378027916
0.03215095028281212
-0.08907864987850189
-0.13047359883785248
0.0696440115571022
-0.06158744916319847
-0.06945155560970306
0.13949409127235413
-0.09804613143205643
-0.05816083773970604
0.13756300508975983
0.13910193741321564
-0.10910413414239883
0.09483998268842697
0.04276307299733162
-0.03730296343564987
0.10135763138532639
0.05229117348790169
0.12363118678331375
0.012465586885809898
-0.13026711344718933
0.05785606428980827
0.0314364954829216
0.13082177937030792
0.1490296721458435
0.12489569932222366
-0.05380963534116745
-0.12092815339565277
-0.06685267388820648
0.07075657695531845
0.06734409928321838
-0.11693461239337921
0.0196788739413023
0.014797904528677464
-0.08169808238744736
0.019593244418501854
0.06704812496900558
0.04910725727677345
-0.20607468485832214
0.09531131386756897
-0.09008108824491501
-0.09311103820800781
-0.15304088592529297
0.09082911163568497
-0.17871367931365967
-0.04837517440319061
0.12397363036870956
-0.08501345664262772
0.17543765902519226
0.11150413751602173
-0.10822474956512451
0.12089908123016357
-0.05344587564468384
0.07937461137771606
-0.018087133765220642
-0.07440575212240219
-0.12054283916950226
-0.04879599064588547
0.06502282619476318
0.14545390009880066
0.01296021044254303
-0.11430768668651581
-0.0009859651327133179
0.09479027986526489
0.053133293986320496
0.05232091248035431
-0.057664625346660614
0.06595145165920258
0.060521483421325684
-0.004231765866279602
-0.11223619431257248
-0.07103917002677917
-0.04224032908678055
0.0828104317188263
-0.06607608497142792
-0.07005269080400467
0.050116926431655884
0.03514350950717926
0.03870619833469391
-0.13208429515361786
-0.003092646598815918
-0.06348610669374466
-0.003881320357322693
-0.12979182600975037
-0.14128032326698303
-0.03476113826036453
-0.09916310012340546
0.000503048300743103
0.09645502269268036
-0.024300657212734222
0.13643574714660645
0.05196569859981537
-0.05970022827386856
0.10773065686225891
0.025669962167739868
-0.024210475385189056
-0.14166787266731262
-0.056808315217494965
0.11832129955291748
-0.13171865046024323
-0.01796482503414154
0.015640966594219208
0.03481070324778557
0.12737393379211426
0.04398879036307335
-0.12989726662635803
-0.1372223049402237
-0.07648807018995285
0.051225561648607254
-0.07953520864248276
-0.04524033144116402
0.00723482109606266
-0.019353020936250687
0.11298982053995132
-0.11538747698068619
0.13290300965309143
-0.03862134367227554
0.013530263677239418
-0.11887924373149872
-0.10174477845430374
0.13155515491962433
0.05941641703248024
0.020222825929522514
-0.14728637039661407
-0.037801243364810944
-0.10971374064683914
-0.10303517431020737
-0.1345600187778473
-0.10121121257543564
-0.024382762610912323
0.08497877418994904
0.0028605759143829346
0.014290288090705872
0.0020777881145477295
0.012874454259872437
0.04129725694656372
0.08776538074016571
0.06301338970661163
-0.1399112194776535
-0.09945410490036011
-0.03975256532430649
-0.06312936544418335
-0.06716755777597427
-0.09945473074913025
0.07440891861915588
-0.07811345905065536
0.059120312333106995
0.057343944907188416
0.11936098337173462
-0.07511109858751297
0.10994240641593933
0.009233370423316956
0.0554141104221344
0.062042832374572754
0.11301425099372864
0.039310798048973083
-0.024795249104499817
0.031198903918266296
0.0964074432849884
0.07927204668521881
-0.021978944540023804
0.1025473028421402
-0.01057848334312439
-0.022937193512916565
-0.11059670150279999
-0.11188658326864243
0.11008709669113159
-0.003366991877555847
-0.015566080808639526
-0.03278104215860367
0.06658734381198883
0.12216129899024963
0.05308474600315094
0.03113473951816559
0.12248677015304565
-0.0003423839807510376
0.09200391173362732
-0.04032405465841293
-0.04844467341899872
0.09543758630752563
-0.02545992285013199
0.11822047084569931
0.09829012304544449
0.049399275332689285
-0.08666053414344788
-0.0704272910952568
-0.10046036541461945
-0.10910596698522568
-0.12756136059761047
-0.0759059339761734
-0.059525877237319946
-0.09173020720481873
-0.12508641183376312
-0.04050908237695694
0.07816432416439056
-0.08222098648548126
-0.13303528726100922
-0.017263073474168777
-0.07186823338270187
0.07564111053943634
0.1276712566614151
0.1381790190935135
-0.004603201989084482
0.012097673490643501
-0.04763774201273918
0.010613322257995605
0.06239551305770874
-0.10903522372245789
-0.13355156779289246
-0.128956139087677
0.07099995017051697
0.03573603928089142
0.14086079597473145
0.04073187708854675
0.08239418268203735
0.04882301390171051
-0.11871447414159775
0.11141571402549744
-0.006620720028877258
0.12375569343566895
-0.09794649481773376
0.10694491863250732
-0.05562805384397507
-0.08681690692901611
-0.11791874468326569
-0.0759882777929306
-0.08191603422164917
0.1336854100227356
-0.019483938813209534
-0.07029755413532257
-0.06315955519676208
0.12682196497917175
0.00786330085247755
0.07761245220899582
0.06721976399421692
-0.043586067855358124
0.038878437131643295
-0.1350252479314804
0.11604692041873932
-0.09846694022417068
0.128483384847641
-0.09712085127830505
-0.02527005970478058
0.00021523743635043502
-0.00573151558637619
0.005981721915304661
-0.129794642329216
-0.11590446531772614
0.04248828440904617
0.07843437790870667
-0.014381465502083302
0.06401504576206207
0.024179231375455856
-0.10888203233480453
0.0984451100230217
0.0038198591209948063
0.11598096042871475
-0.12075016647577286
0.16714082658290863
-0.1921088844537735
0.14942239224910736
-0.05548494681715965
-0.025326646864414215
-0.16105182468891144
0.048971422016620636
0.10487446188926697
0.14593790471553802
-0.08124961704015732
-0.015527941286563873
-0.0649750605225563
-0.01491959486156702
-0.06337928026914597
-0.01048264093697071
-0.0734315812587738
-0.16109903156757355
-0.12200247496366501
0.003297997172921896
0.18934932351112366
0.012809177860617638
0.021946916356682777
-0.1635376662015915
0.06855515390634537
-0.013444358482956886
0.12683328986167908
-0.06859526038169861
0.0003020763397216797
0.11008104681968689
-0.013782992959022522
0.055639252066612244
-0.09272922575473785
-0.06325070559978485
0.027644798159599304
0.06482060253620148
0.13551944494247437
0.05436186492443085
-0.05141594260931015
0.08209586143493652
-0.060281939804553986
-0.041174277663230896
-0.059927284717559814
-0.002202630043029785
-0.14539021253585815
0.08889420330524445
-0.13409797847270966
0.08635252714157104
0.10454097390174866
-0.09348799288272858
0.06365063786506653
-0.054018229246139526
-0.11685634404420853
-0.03941689059138298
-0.042788874357938766
-0.10709255933761597
0.10304134339094162
-0.13513007760047913
0.09463159739971161
-0.0319986529648304
-0.09569256752729416
0.08404554426670074
0.002462820615619421
0.004542068112641573
0.03815324977040291
-0.09399819374084473
-0.09952493011951447
-0.09550707042217255
-0.0019755959510803223
-0.008752889931201935
0.02339593879878521
-0.11413644999265671
-0.06127479299902916
-0.06068069115281105
-0.09369055181741714
-0.023945674300193787
0.04560621827840805
0.029797691851854324
-0.1090746596455574
-0.03441770002245903
0.06668638437986374
-0.04634137451648712
-0.12996020913124084
0.027295568957924843
-0.019201848655939102
-0.11287078261375427
0.02949989214539528
-0.006405077408999205
0.044556181877851486
0.11441923677921295
0.02646024152636528
0.1394769698381424
0.00904512032866478
0.12189903855323792
-0.13724465668201447
0.04782787337899208
0.1335611790418625
-0.17230215668678284
0.13469398021697998
0.08418802171945572
0.19907018542289734
0.02690412476658821
-0.06440267711877823
-0.06567532569169998
0.16632434725761414
-0.0071404180489480495
-0.03717551380395889
-0.05118527635931969
-0.0965975895524025
-0.11166131496429443
-0.045812107622623444
0.1264868974685669
-0.17121480405330658
-0.17891930043697357
-0.09707951545715332
0.07597269117832184
0.06253208965063095
-0.004819199908524752
-0.15402598679065704
-0.07050472497940063
0.1605285406112671
0.0029787824023514986
0.021023152396082878
0.1471962034702301
-0.03616441413760185
-0.07174710929393768
-0.011312109418213367
-0.14069965481758118
0.0763845220208168
0.038215577602386475
0.15937677025794983
0.1790110319852829
-0.1641363501548767
-0.055426113307476044
0.015605485066771507
-0.11884959787130356
-0.08628049492835999
0.15318691730499268
-0.0226222425699234
0.1572871059179306
-0.09774317592382431
0.08728551864624023
-0.030649268999695778
-0.03527751937508583
-0.13739903271198273
-0.0029008325655013323
-0.23431792855262756
0.04723307862877846
-0.13765127956867218
0.15115857124328613
0.045726925134658813
-0.15586793422698975
-0.05451255291700363
-0.11315125226974487
0.02570631355047226
0.023503204807639122
0.13157793879508972
-0.06716655194759369
-0.13478513062000275
0.104157954454422
-0.028388611972332
0.07686962187290192
-0.013853073120117188
-0.028335578739643097
-0.12931737303733826
0.013338789343833923
0.09000594913959503
-0.031537629663944244
0.0939592570066452
0.004422679543495178
-0.12228143960237503
-0.08439371734857559
0.05414673686027527
0.05867326259613037
0.06742498278617859
0.07552222907543182
-0.14464697241783142
-0.054274365305900574
0.055267348885536194
0.07932929694652557
0.09303675591945648
-0.1014891117811203
0.09228670597076416
0.07805332541465759
-0.007094235625118017
0.08385802060365677
0.05113308131694794
0.16043788194656372
-0.160648912191391
0.17279116809368134
-0.16454029083251953
-0.1294666975736618
0.08549736440181732
0.09827365726232529
-0.014591819606721401
-0.015399500727653503
0.028281399980187416
-0.10793203860521317
-0.16407017409801483
-0.15781846642494202
-0.10365406423807144
-0.19600801169872284
0.07651787996292114
-0.10456797480583191
-0.06495464593172073
0.023185549303889275
0.03882526233792305
-0.1664109230041504
-0.12525521218776703
0.0018847680184990168
-0.036941047757864
-0.13726386427879333
-0.13543511927127838
-0.12569043040275574
0.07992485910654068
0.10415845364332199
0.020889170467853546
0.058703046292066574
0.03416911140084267
0.06471911817789078
0.06593813747167587
0.009283561259508133
-0.08530392497777939
0.12429983168840408
0.04063238203525543
0.05381345748901367
-0.07241255044937134
0.017403941601514816
-0.08412197232246399
-0.13339680433273315
0.09156651794910431
-0.11307826638221741
0.10840736329555511
-0.05002675950527191
-0.025506967678666115
0.12494831532239914
0.003756224177777767
-0.12524665892124176
-0.03842862322926521
0.1048019528388977
-0.06295666098594666
0.010832438245415688
-0.08767044544219971
-0.021092034876346588
0.07881847769021988
0.005523809231817722
0.12839777767658234
0.14100730419158936
0.06910227239131927
-0.04665026441216469
-0.002302735112607479
-0.124873585999012
-0.04145895317196846
-0.039659276604652405
-0.017406847327947617
-0.027683235704898834
0.08932936191558838
-0.10314705222845078
-0.03906741365790367
-0.02036161720752716
0.12919700145721436
0.053911242634058
-0.07607372850179672
0.07986826449632645
-0.12507177889347076
-0.09372369199991226
0.11847791820764542
-0.0031926450319588184
-0.038785409182310104
-0.008758348412811756
0.09626512974500656
-0.08408211171627045
-0.09744076430797577
0.020483020693063736
-0.1487569361925125
-0.09953271597623825
0.005735435057431459
-0.033766161650419235
0.0012878220295533538
0.07289237529039383
-0.13187232613563538
-0.060209404677152634
0.02412293292582035
-0.09826125204563141
0.03286748379468918
-0.060045257210731506
0.09956411272287369
0.0946965366601944
-0.0035184507723897696
-0.019879620522260666
0.1342836171388626
-0.08345076441764832
-0.0041960845701396465
-0.03869463503360748
-0.06715365499258041
-0.07881686091423035
-0.059225767850875854
0.0934641882777214
-0.13705672323703766
-0.05891908332705498
0.023571401834487915
0.11423545330762863
0.09359283000230789
-0.035945549607276917
0.14041371643543243
0.07446471601724625
-0.06846647709608078
0.021095985546708107
0.07271351665258408
0.08216460049152374
-0.025645358487963676
-0.10868009924888611
-0.005499713588505983
0.03490742668509483
-0.14972811937332153
0.11922163516283035
0.0031865648925304413
0.06216708570718765
-0.06773000955581665
0.1017189547419548
0.09988541901111603
0.045970942825078964
-0.13102298974990845
0.05630228668451309
-0.11053799092769623
0.03598617762327194
0.01912040449678898
-0.04157954454421997
-0.07293496280908585
-0.02919815480709076
-0.05410943925380707
0.11915929615497589
-0.14725790917873383
0.08344855159521103
0.12382557988166809
0.0187358520925045
-0.14166927337646484
0.12485527247190475
0.09492369741201401
0.013486453332006931
0.11471503227949142
-0.014278308488428593
0.11776663362979889
0.04608459025621414
-0.13466420769691467
-0.022213775664567947
-0.11723669618368149
-0.18723535537719727
-0.008162758313119411
0.138503298163414
-0.10951483994722366
-0.15885737538337708
-0.18939512968063354
-0.09587792307138443
-0.05454983189702034
0.024367591366171837
-0.050039924681186676
0.07397248595952988
0.06433317810297012
-0.12299380451440811
-0.16407322883605957
0.03555493429303169
-0.12383610755205154
0.20107731223106384
-0.05437546968460083
0.05335167050361633
-0.0834212601184845
-0.068051278591156
-0.06258697807788849
-0.05012621730566025
0.05572991445660591
-0.05123221501708031
0.05143268406391144
0.013433787971735
-0.003294404363259673
-0.13313567638397217
0.009858835488557816
-0.06594552844762802
0.11992472410202026
-0.05688789486885071
-0.08210425078868866
-0.005093463230878115
0.05160340666770935
0.1083395704627037
-0.018925784155726433
-0.03491903841495514
-0.00021880325220990926
0.12034644186496735
-0.12384949624538422
-0.0580315999686718
0.05561567842960358
0.11793392896652222
-0.07382518798112869
-0.08042066544294357
-0.015637308359146118
-0.037737660109996796
-0.11471644788980484
0.044151708483695984
0.021310672163963318
0.03368966281414032
0.06825806200504303
-0.10436895489692688
0.08259807527065277
0.06493867933750153
0.027100399136543274
-0.002716049551963806
0.10745930671691895
0.03787572681903839
0.01036880910396576
0.08364799618721008
-0.12368673831224442
0.0924864113330841
-0.10195870697498322
0.03829662501811981
-0.0807173103094101
0.01633681356906891
0.11302187293767929
0.13299448788166046
0.03846506401896477
0.12368860095739365
0.07777149230241776
0.12487256526947021
-0.10074163228273392
0.07899299263954163
0.06805576384067535
0.011572432704269886
0.008707121945917606
-0.13873536884784698
-0.05491653084754944
-0.1576184183359146
-0.024276766926050186
0.08071862161159515
-0.07510881125926971
0.00042658543679863214
0.03519740700721741
-0.16329620778560638
-0.11631584912538528
-0.11841127276420593
-0.02206401713192463
0.06742753088474274
-0.07013296335935593
-0.03812506049871445
-0.10363283008337021
-0.10603686422109604
-0.04420775547623634
-0.06411302089691162
0.14380408823490143
0.0159177016466856
-0.11567030102014542
-0.13547547161579132
-0.2245156466960907
0.03215417638421059
0.05629879608750343
-0.005184102337807417
-0.0844380110502243
-0.054110195487737656
0.05976894497871399
0.01305591594427824
-0.1480848640203476
0.023694835603237152
-0.16283905506134033
0.08710920065641403
0.10993587225675583
-0.07639225572347641
-0.08233924955129623
-0.18571437895298004
0.07573350518941879
0.06428833305835724
0.008071087300777435
-0.010955074802041054
0.1039164587855339
0.08271022886037827
0.056444715708494186
0.10916686058044434
0.10891466587781906
-0.21515129506587982
-0.14583061635494232
-0.14159686863422394
0.016636624932289124
0.04793392866849899
-0.12261084467172623
-0.07798901200294495
-0.050739042460918427
0.10394493490457535
-0.1283191442489624
0.060579538345336914
-0.01633930578827858
0.07775981724262238
-0.17437009513378143
-0.12053108960390091
-0.20653507113456726
0.06916597485542297
-0.09946736693382263
0.10051844269037247
0.09875091165304184
0.004497559275478125
0.07301578670740128
0.13831424713134766
-0.030386600643396378
-0.04199511930346489
0.0626852735877037
-0.007953422144055367
0.012023271061480045
0.025767968967556953
0.053946997970342636
-0.13607467710971832
0.1475650817155838
-0.08508657664060593
0.029790323227643967
-0.10766203701496124
0.0823032334446907
-0.06159035488963127
-0.02745186537504196
0.1326485574245453
-0.017031129449605942
-0.03071565181016922
-0.11323848366737366
-0.009971747174859047
-0.09052339196205139
0.06604626774787903
-0.06888964772224426
0.031949251890182495
0.08260583877563477
-0.08267472684383392
0.08011354506015778
-0.06537272036075592
-0.09962152689695358
0.018285706639289856
-0.058728039264678955
-0.1162647157907486
0.034224733710289
0.0721871554851532
0.11144906282424927
-0.013076260685920715
-0.023069724440574646
0.11141160130500793
-0.06012328714132309
0.115377277135849
0.05514083802700043
0.019640162587165833
0.04234810173511505
0.09469054639339447
-0.05263421684503555
0.07956893742084503
-0.0010968297719955444
-0.08099775016307831
-0.12761138379573822
-0.07874243706464767
0.0012985318899154663
-0.03767310827970505
-0.10927848517894745
-0.10181295871734619
-0.03895346075296402
-0.09628666192293167
-0.06764449179172516
0.089109405875206
-0.11088615655899048
0.04066108167171478
-0.0791594460606575
0.01738564670085907
-0.015267238020896912
-0.058448709547519684
0.09310261905193329
0.11351549625396729
-0.13958348333835602
0.02835233509540558
0.06621348857879639
0.006496503949165344
-0.11595558375120163
-0.13381284475326538
-0.007514938712120056
0.14544597268104553
-0.05861212685704231
0.1100241094827652
0.12277346104383469
0.021087931469082832
-0.034390583634376526
0.008302764035761356
0.03214317187666893
0.0249506626278162
-0.14084850251674652
0.12199615687131882
-0.0973738431930542
0.046956710517406464
0.11147645860910416
0.034532416611909866
0.03716801479458809
0.1348143219947815
0.029741594567894936
-0.056730713695287704
-0.10513647645711899
-0.012682772241532803
-0.13334520161151886
-0.14014513790607452
0.10677894949913025
-0.04968104138970375
-0.03465920686721802
0.04598870128393173
-0.06574539095163345
0.09163810312747955
0.12084141373634338
-0.1539737731218338
-0.10070224106311798
0.060349538922309875
0.053076114505529404
0.0717582032084465
0.09144701808691025
0.12575490772724152
0.045298896729946136
0.1325094848871231
-0.005013708490878344
-0.13843248784542084
-0.0646720752120018
0.13396666944026947
-0.05323866754770279
0.05383661016821861
0.12812162935733795
-0.043523117899894714
0.059899527579545975
0.015603604726493359
-0.08508925139904022
0.08667793869972229
-0.11852432787418365
0.0819413810968399
-0.0064570605754852295
0.008250683546066284
-0.04695761203765869
0.0641087144613266
0.0848378837108612
-0.12623585760593414
-0.05536371469497681
-0.03960660099983215
0.07131616771221161
0.03557939827442169
-0.11182721704244614
0.056348174810409546
0.0382513552904129
0.13365104794502258
-0.020670711994171143
0.14163139462471008
0.020640835165977478
-0.13649362325668335
0.07851871848106384
0.020998656749725342
-0.13286200165748596
-0.11790205538272858
0.0761425793170929
0.09849482774734497
0.029997259378433228
-0.08316348493099213
0.016445398330688477
0.006456125993281603
0.07737639546394348
-0.07248722016811371
0.03115234524011612
0.027742164209485054
-0.10298240184783936
-0.011969412676990032
-0.0018088037613779306
-0.08457343280315399
0.0062447963282465935
0.09899858385324478
-0.04345587641000748
-0.09410755336284637
-0.08885688334703445
-0.09146341681480408
0.03638007491827011
0.13799767196178436
0.05617053806781769
0.08030986040830612
0.020971421152353287
0.10109001398086548
0.13579022884368896
0.09640234708786011
0.02365194819867611
-0.0007060503703542054
-0.060900818556547165
-0.05402916669845581
0.008656911551952362
0.008765865117311478
-0.020643141120672226
0.13995356857776642
0.07971741259098053
-0.03237145394086838
-0.051007844507694244
-0.04525967687368393
0.07452932745218277
-0.03466492518782616
-0.009115895256400108
-0.07397426664829254
-0.10672018676996231
-0.0845949575304985
-0.032243434339761734
-0.09571655839681625
-0.1053602546453476
0.12876376509666443
-0.08250023424625397
-0.0029597121756523848
0.03086872398853302
0.03679582476615906
0.03911630064249039
-0.13524891436100006
0.11644178628921509
-0.14013801515102386
-0.06882744282484055
0.07939355820417404
-0.07451216131448746
0.0003146835369989276
0.10919605940580368
-0.07514217495918274
-0.0741501897573471
-0.09417960047721863
-0.14919359982013702
-0.0762500911951065
0.0131826875731349
0.10681483894586563
-0.051794011145830154
-0.13541287183761597
0.11586179584264755
-0.10791216790676117
-0.022231774404644966
0.014231286942958832
0.1351846158504486
0.004779019858688116
0.04697727784514427
0.0989704579114914
0.07333995401859283
-0.10726039856672287
0.055190328508615494
0.11858572065830231
-0.019390162080526352
-0.13173416256904602
0.10771769285202026
-0.12892526388168335
0.0009290765156038105
0.023395569995045662
-0.010449852794408798
-0.030169358476996422
0.11363472789525986
0.12318045645952225
0.10404426604509354
-0.1208941787481308
0.0917300283908844
0.0012870205100625753
-0.07835350930690765
0.13948403298854828
0.09131797403097153
0.09789907932281494
-0.05231841653585434
0.08442176133394241
-0.13463598489761353
-0.04684078320860863
0.047519147396087646
-0.025501037016510963
-0.12685655057430267
-0.07487339526414871
-0.07089004665613174
-0.12707634270191193
-0.047020941972732544
-0.04878527671098709
-0.043841876089572906
-0.07315298169851303
-0.08362351357936859
-0.12049922347068787
-0.0933423787355423
0.07996964454650879
0.11621955037117004
0.03129644691944122
0.03207169473171234
0.001935020089149475
0.033977121114730835
0.10763311386108398
0.13803410530090332
0.03986193239688873
-0.06618118286132812
0.04347418248653412
0.1085725724697113
0.09948398172855377
0.007535219192504883
-0.05809975415468216
0.16137632727622986
0.13756230473518372
-0.0934557393193245
-0.20586013793945312
-0.0029333317652344704
-0.0821480005979538
0.10199902206659317
0.046010762453079224
0.16429783403873444
0.03227686136960983
-0.01162350457161665
0.01132994331419468
0.07116450369358063
-0.24904058873653412
-0.028691643849015236
0.09687630832195282
0.08883173763751984
-0.053561657667160034
0.14862269163131714
-0.15384569764137268
-0.24205322563648224
0.120406873524189
-0.056092485785484314
-0.06060247868299484
0.10982053726911545
0.023569345474243164
-0.0045159440487623215
0.0868973582983017
-0.027930064126849174
-0.12040373682975769
0.09198348224163055
0.12051472067832947
0.07029994577169418
0.11687572300434113
0.05641913414001465
0.1368066966533661
0.09766502678394318
-0.01828131452202797
-0.07508759200572968
-0.10108499974012375
0.12082002311944962
0.0895000696182251
0.11682447046041489
0.08207186311483383
0.03276631981134415
0.09152933955192566
-0.020354896783828735
-0.0956103727221489
-0.010044973343610764
-0.027674848213791847
0.029909927397966385
-0.1372961401939392
0.021506929770112038
-0.07001601904630661
0.07295429706573486
-0.11206001788377762
0.0021349256858229637
0.17635603249073029
-0.13800360262393951
0.08871223032474518
-0.1136111468076706
-0.13394808769226074
-0.10482565313577652
-0.0806032046675682
-0.022116994485259056
-0.12117764353752136
-0.1407555341720581
0.04820480942726135
-0.12964454293251038
0.021848447620868683
-0.05238042399287224
0.1493442952632904
0.08425630629062653
0.18145760893821716
0.1786576360464096
-0.13605619966983795
-0.060200780630111694
-0.07130081206560135
-0.11804766207933426
0.054873913526535034
-0.06307080388069153
-0.09073442220687866
-0.0025724470615386963
-0.0385265052318573
-0.08354853093624115
0.012242034077644348
0.0854739248752594
-0.070208840072155
0.04256333410739899
-0.0644218847155571
0.11769384145736694
0.08734934031963348
-0.024373754858970642
-0.09183048456907272
-0.06601905077695847
-0.11777855455875397
-0.032153524458408356
-0.058887869119644165
0.08176003396511078
-0.12555301189422607
0.09896713495254517
0.03901268541812897
-0.0708753690123558
0.14442306756973267
-0.11192753165960312
0.15977901220321655
0.1125062108039856
0.11073994636535645
0.05550399795174599
0.13746343553066254
-0.0221418309956789
0.10669292509555817
-0.22478240728378296
0.04870341345667839
-0.06934662163257599
-0.014101257547736168
-0.0293184332549572
0.15493887662887573
0.042155537754297256
0.15832971036434174
0.02945561148226261
0.15803787112236023
0.09608479589223862
0.0020467336289584637
0.020115282386541367
-0.01999734528362751
0.023072492331266403
-0.0893055647611618
0.006770971231162548
-0.24748288094997406
-0.13780218362808228
0.10027522593736649
0.09620391577482224
0.06675491482019424
-0.054074726998806
-0.09903804957866669
0.04768319055438042
-0.016799699515104294
-0.054905716329813004
-0.11527159065008163
0.05732911825180054
0.05035572126507759
-0.11295349895954132
-0.12414142489433289
0.051034361124038696
0.12449657917022705
0.08619730919599533
-0.02010049857199192
0.09811994433403015
0.053588856011629105
-0.14315538108348846
-0.005016147159039974
0.08915891498327255
0.11500995606184006
0.024105500429868698
-0.11252337694168091
0.10715525597333908
0.07515684515237808
-0.11248958855867386
0.09819269925355911
0.10949993878602982
0.06107506528496742
0.053303319960832596
0.08521284908056259
0.09439554810523987
0.14319899678230286
0.09262780100107193
-0.08231721073389053
0.11165979504585266
-0.09596529603004456
0.01743501052260399
-0.12899696826934814
0.13714025914669037
-0.08076471835374832
0.11900833249092102
-0.12636803090572357
0.012790756300091743
-0.07553842663764954
0.053923942148685455
-0.08054707944393158
-0.0228850319981575
-0.046088505536317825
0.054787393659353256
-0.18840372562408447
0.0384766086935997
0.07234106212854385
-0.028392160311341286
-0.13852238655090332
-0.24680203199386597
-0.05798228457570076
0.07552453130483627
-0.1702890843153
0.07032833248376846
0.24645042419433594
0.17415301501750946
0.18102233111858368
0.04613640159368515
0.10113842040300369
0.17574794590473175
-0.006593560799956322
-0.2786146104335785
0.017706746235489845
-0.059182558208703995
-0.1347251534461975
0.0877566933631897
0.13552701473236084
0.058572787791490555
-0.10790189355611801
-0.08497383445501328
-0.045379165560007095
0.13184082508087158
-0.07490245252847672
0.12552699446678162
-0.013250068761408329
0.09334943443536758
-0.07154252380132675
0.13323017954826355
0.002211357466876507
0.09895569831132889
-0.11206766963005066
-0.012984250672161579
-0.13642650842666626
-0.10545695573091507
0.021197641268372536
-0.013597979210317135
0.0606444850564003
-0.008612488396465778
-0.05585020035505295
-0.030861226841807365
-0.03469977155327797
-0.09329432249069214
0.00027794751804322004
-0.08405791968107224
-0.08119037002325058
0.0335632786154747
-0.10792267322540283
0.045485012233257294
0.0668332427740097
-0.12859901785850525
0.07956209778785706
-0.1278371661901474
0.02534560114145279
0.10384607315063477
0.09362379461526871
0.10673191398382187
-0.07656439393758774
-0.06537095457315445
-0.10884802788496017
-0.0005540655110962689
0.059550732374191284
0.09890320152044296
0.08694174140691757
-0.051137521862983704
0.11695773154497147
0.04561670124530792
-0.08894134312868118
0.13308179378509521
0.07628288865089417
-0.023620663210749626
0.03147943690419197
-0.08159247040748596
-0.13740867376327515
-0.1357938051223755
0.023333370685577393
0.1384263038635254
-0.09920388460159302
-0.0035846680402755737
0.0216054767370224
-0.12087395042181015
-0.05208011716604233
-0.10246596485376358
0.019856750965118408
0.05423843860626221
0.06772688031196594
-0.0790276750922203
-0.10056627541780472
0.07316438853740692
0.14507251977920532
0.022933676838874817
0.008880183100700378
0.09270411729812622
-0.06122954189777374
-0.14373205602169037
0.11631187796592712
-0.11259777098894119
-0.12217237800359726
-0.09736282378435135
-0.13236930966377258
0.02088986523449421
-0.07292250543832779
-0.07578317075967789
-0.09533660858869553
-0.0002955511736217886
-0.11828721314668655
0.10588208585977554
0.050594985485076904
0.046376388520002365
-0.009122414514422417
0.030903376638889313
-0.02500631846487522
-0.09141557663679123
0.14212866127490997
0.04202001541852951
-0.03285329043865204
0.132745161652565
0.04466603323817253
0.0037505619693547487
-0.10012485831975937
-0.020342182368040085
0.013949071057140827
0.1262974590063095
-0.01763407327234745
-0.20043814182281494
-0.19748185575008392
-0.11224936693906784
0.13837803900241852
-0.12686443328857422
-0.2285519242286682
-0.09120960533618927
0.10327067226171494
0.10252215713262558
-0.03242303803563118
-0.2067817598581314
-0.14790798723697662
-0.044461023062467575
0.04731357842683792
0.12171818315982819
-0.06796091794967651
0.14550746977329254
0.19371676445007324
-0.025414738804101944
0.11344213038682938
-0.0642981082201004
-0.10393622517585754
0.14295122027397156
-0.10242773592472076
-0.14848113059997559
-0.08810804784297943
0.050913020968437195
0.10165156424045563
-0.11558365076780319
0.09977633506059647
-0.022933822125196457
-0.04715361446142197
0.08737964928150177
-0.06285920739173889
-0.044888366013765335
-0.12029755860567093
0.044807303696870804
-0.05255405604839325
0.13871386647224426
0.04188503324985504
-0.0849396362900734
-0.11104758828878403
-0.0049298410303890705
-0.09788322448730469
-0.03657948225736618
0.08648567646741867
0.10733900219202042
-0.022037360817193985
0.11179237067699432
0.1316903531551361
-0.11829845607280731
0.13589873909950256
0.08329987525939941
-0.021711863577365875
-0.053924962878227234
0.1419358253479004
-0.0718495100736618
-0.03805851191282272
-0.14258511364459991
0.05360160768032074
0.06750284135341644
-0.13486014306545258
0.10068577527999878
0.05390666425228119
-0.02319175750017166
0.047146275639534
-0.11027008295059204
0.11959433555603027
0.04933583736419678
-0.08828577399253845
0.1412982940673828
0.117961585521698
-0.11374989151954651
0.014693215489387512
0.13062429428100586
-0.03786059468984604
0.08615468442440033
-0.011998251080513
0.14750227332115173
-0.12926295399665833
-0.01665619947016239
0.028449030593037605
-0.09601670503616333
-0.13322417438030243
0.09637889266014099
-0.07158388197422028
-0.08166122436523438
0.1491936445236206
-0.06364130228757858
0.012110128998756409
-0.08167333155870438
0.08305156975984573
0.09056951850652695
-0.026977509260177612
-0.06104525923728943
0.07474303245544434
0.04791655018925667
0.08056395500898361
-0.1336670219898224
-0.019100915640592575
-0.05395669862627983
-0.02408703602850437
0.11023292690515518
-0.058776989579200745
-0.043908894062042236
-0.07622528076171875
-0.12598298490047455
0.06443889439105988
-0.053115494549274445
-0.05192737281322479
0.12079417705535889
-0.12766744196414948
0.10839775204658508
0.06398595869541168
-0.1049170047044754
0.05184711515903473
-0.017115458846092224
0.06303505599498749
-0.114969901740551
-0.07884631305932999
0.14384013414382935
-0.06273489445447922
0.11021867394447327
-0.07017047703266144
-0.14512518048286438
-0.059503354132175446
0.0010932087898254395
-0.12231732904911041
-0.02726837992668152
0.04561588168144226
0.028268825262784958
-0.04179028794169426
-0.015474769286811352
-0.025840433314442635
0.03500143811106682
0.023316364735364914
-0.0016110046999529004
0.08183998614549637
-0.05104495584964752
-0.06218056008219719
0.13061726093292236
-0.06787165254354477
0.13387559354305267
-0.037815917283296585
-0.06542174518108368
0.06316891312599182
0.0999661535024643
0.055249206721782684
-0.046859607100486755
0.07643801718950272
-0.030523309484124184
-0.13492953777313232
-0.0384916327893734
-0.016737358644604683
-0.04013323038816452
0.005233286879956722
-0.1319994479417801
0.14124876260757446
-0.046964194625616074
0.14243051409721375
-0.1285802721977234
-0.002681734738871455
-0.06741950660943985
-0.0537308044731617
-0.03130936250090599
-0.077516108751297
0.003123052418231964
0.1409168690443039
-0.0015736195491626859
-0.09296063333749771
0.05985027179121971
-0.11456307023763657
0.11651656031608582
0.03655778244137764
-0.015498294495046139
-0.09708746522665024
-0.07852498441934586
-0.08516693860292435
-0.08067391812801361
-0.09209416061639786
-0.061824481934309006
0.06652006506919861
-0.10864999890327454
0.03865911066532135
0.1386595368385315
0.13518285751342773
0.06796641647815704
0.015445202589035034
0.07475261390209198
0.03211596608161926
-0.01349709928035736
0.11976438760757446
0.14317595958709717
-0.026605531573295593
-0.1136956438422203
-0.020285651087760925
0.0003122985363006592
0.07582308351993561
-0.08706483244895935
0.03237175941467285
-0.06348757445812225
0.03683874011039734
-0.06800227612257004
0.016975969076156616
-0.027316749095916748
-0.04255165159702301
0.024945899844169617
-0.048081912100315094
0.1462940126657486
0.040398333221673965
0.06483650952577591
-0.14781691133975983
-0.07572640478610992
-0.036649368703365326
-0.06665170192718506
-0.18012885749340057
-0.14553098380565643
-0.009931743144989014
0.00769815593957901
-0.15320956707000732
-0.0430300273001194
-0.09269971400499344
-0.19440209865570068
-0.08262680470943451
0.0902157574892044
0.1697763204574585
-0.051493365317583084
-0.053267017006874084
-0.2533440589904785
0.04082198441028595
-0.011468932963907719
0.184456005692482
0.15072950720787048
0.08416008949279785
0.028456807136535645
-0.03364914655685425
0.10088779032230377
0.07456298172473907
0.06294062733650208
0.13192108273506165
0.04873478412628174
0.08868139982223511
-0.03309500962495804
0.13022789359092712
0.05156582593917847
-0.04003415256738663
-0.08550015091896057
0.13157328963279724
-0.0985095351934433
-0.06913318485021591
-0.09820780903100967
-0.08061923831701279
-0.03894414007663727
-0.0917278602719307
-0.12539143860340118
-0.13095390796661377
0.017602339386940002
-0.008758008480072021
-0.07070350646972656
0.1218404769897461
0.13940130174160004
-0.0634203851222992
0.02622990496456623
-0.13876095414161682
-0.06177689880132675
-0.07812376320362091
-0.13666266202926636
0.13511821627616882
0.04462715983390808
0.008529435843229294
-0.1555773764848709
-0.18690617382526398
0.15148505568504333
0.13708417117595673
0.06690789759159088
-0.15508230030536652
0.028738727793097496
0.1730423867702484
0.0812288373708725
0.03780015558004379
-0.24509432911872864
0.06601689010858536
-0.02846818044781685
-0.03487411141395569
-0.07236648350954056
0.06723285466432571
0.030314438045024872
-0.12315184623003006
0.05647197365760803
-0.11876625567674637
-0.1994761824607849
-0.23135754466056824
-0.13006961345672607
0.08215741068124771
-0.03405806049704552
0.11618833243846893
-0.012444697320461273
0.0323525108397007
0.009698395617306232
0.06655481457710266
0.056331567466259
-0.21148128807544708
-0.1852758377790451
-0.08587456494569778
-0.05045369639992714
0.05812395364046097
-0.06549670547246933
-0.03218850493431091
-0.06376463919878006
-0.015871014446020126
0.05790087208151817
0.18876726925373077
0.127672478556633
-0.05795653909444809
-0.10387562960386276
-0.14403340220451355
0.00864750612527132
0.07298818230628967
-0.09172631800174713
0.1364542543888092
0.1400792896747589
-0.11564832925796509
-0.07378770411014557
-0.1434270441532135
-0.11184415221214294
0.06775140017271042
-0.021560588851571083
-0.008705828338861465
-0.010080838575959206
-0.10589638352394104
0.06758325546979904
0.08109986782073975
-0.07587862014770508
0.043301764875650406
0.1033928319811821
-0.12784220278263092
-0.1441759169101715
-0.01920594833791256
0.08269862830638885
0.09542811661958694
-0.03968176245689392
0.023870693519711494
0.05962603911757469
0.04774278402328491
-0.07113369554281235
-0.085567407310009
0.0793316513299942
-0.12743747234344482
0.09380083531141281
-0.11197648197412491
0.1506223976612091
0.13151535391807556
0.034735579043626785
-0.15076352655887604
0.08781757205724716
-0.10725094377994537
-0.13631846010684967
-0.10405805706977844
0.12510958313941956
0.018727591261267662
0.007118599954992533
0.027070261538028717
0.04160788282752037
-0.09147057682275772
-1.1995434761047363e-05
0.0007106363773345947
0.0618901252746582
0.09250940382480621
0.004643693566322327
-0.12195457518100739
0.0517859011888504
-0.10035848617553711
-0.06333201378583908
0.12394165992736816
0.07099197804927826
-0.132181316614151
0.03296932578086853
0.03431686758995056
0.13327518105506897
-0.03556479513645172
0.14348071813583374
-0.055589281022548676
0.029257401823997498
0.04934413731098175
0.14277300238609314
0.12966251373291016
0.04898771643638611
0.09365999698638916
-0.07347066700458527
-0.04388072341680527
-0.09395512193441391
0.12592750787734985
-0.07807315140962601
-0.12375959753990173
-0.04050125554203987
-0.0432748943567276
-0.044185660779476166
0.12421172857284546
-0.056165825575590134
-0.042088963091373444
-0.0930473580956459
0.06705387681722641
0.12944330275058746
0.03929814323782921
-0.15178607404232025
-0.05612391605973244
0.02663811668753624
0.007076955400407314
0.03621865436434746
0.047757890075445175
-0.0842951163649559
0.10792617499828339
0.12162751704454422
0.048131104558706284
0.1389235109090805
-0.020639784634113312
0.09682342410087585
-0.19164663553237915
0.10096869617700577
0.09106443077325821
0.03883896395564079
0.03901226818561554
-0.0015819052932783961
-0.15249110758304596
0.053116459399461746
0.09850563108921051
0.08590000867843628
-0.04778694361448288
0.10624182969331741
-0.013052744790911674
0.14199985563755035
0.1357719749212265
0.15708911418914795
0.005680447444319725
-0.016117077320814133
0.02821643091738224
-0.04917671158909798
0.01123647391796112
0.11070086807012558
0.10509691387414932
0.0577094741165638
0.12438977509737015
-0.06920108199119568
-0.027290837839245796
0.07742191106081009
-0.08106714487075806
-0.06559276580810547
0.10876887291669846
-0.11534430086612701
0.09127946943044662
-0.030536871403455734
-0.10244535654783249
-0.14534932374954224
-0.03170016407966614
-0.06376173347234726
-0.02586025558412075
0.07789188623428345
-0.14919817447662354
0.04900677502155304
0.05643698200583458
0.03671906888484955
-0.11752638220787048
-0.09780080616474152
-0.14656256139278412
-0.03801495581865311
0.0750792920589447
0.07792732864618301
0.05964277312159538
0.12109705060720444
0.05671657621860504
0.0685328021645546
0.03633280098438263
-0.028425173833966255
0.12925004959106445
0.08684908598661423
0.06353127211332321
0.023324400186538696
-0.08797275274991989
-0.10978659242391586
0.026948530226945877
0.1009807139635086
-0.09078754484653473
-0.10598277300596237
-0.1129176914691925
0.02362661249935627
-0.008843895979225636
-0.03893832489848137
0.12591981887817383
0.11828873306512833
-0.013824873603880405
0.08871888369321823
0.13366493582725525
-0.09424659609794617
0.1239151805639267
0.028093798086047173
0.04320088401436806
0.07936953753232956
0.1368580162525177
0.132148876786232
-0.11441583931446075
-0.04635743796825409
-0.02082735300064087
0.06547829508781433
0.08853410184383392
-0.053002744913101196
-0.08946944028139114
0.1512809544801712
-0.0867728739976883
0.12352380156517029
0.11881575733423233
-0.14777740836143494
-0.08778242021799088
-0.09031850099563599
-0.12639100849628448
-0.11739350855350494
-0.1476111114025116
0.07725884020328522
-0.048507556319236755
-0.15018318593502045
0.06293173879384995
-0.04172952473163605
-0.03154580295085907
0.033732056617736816
0.08995041251182556
-0.1023864597082138
0.13273891806602478
-0.09014864265918732
-0.047214820981025696
0.1241464912891388
0.1261669397354126
0.06788600981235504
-0.09755712747573853
-0.0718359425663948
0.057992324233055115
0.08674846589565277
-0.030348919332027435
-0.08677951991558075
0.055886268615722656
0.07983589172363281
-0.04452844709157944
-0.07795768976211548
0.14321646094322205
-0.14514611661434174
-0.044220007956027985
-0.12897731363773346
-0.058626241981983185
-0.07983850687742233
-0.11940150707960129
0.07210838049650192
0.0075438660569489
0.0015063273021951318
0.11601243913173676
-0.016960835084319115
0.10032697767019272
-0.12323865294456482
0.0401848666369915
0.025717230513691902
-0.13502749800682068
-0.13731998205184937
0.007439623586833477
-0.011914924718439579
0.1223045065999031
0.004019161220639944
-0.06182257458567619
-0.03645585849881172
-0.09263391047716141
0.1348446011543274
-0.0508262999355793
-0.023496221750974655
-0.04340864717960358
-0.0207798071205616
-0.09898100793361664
-0.10473120212554932
0.028456585481762886
-0.06341906636953354
0.07495332509279251
0.10487236827611923
-0.04798220843076706
-0.023433640599250793
-0.007747851777821779
0.005412808619439602
-0.043971072882413864
-0.09373738616704941
0.08689848333597183
-0.03076620027422905
-0.050160665065050125
-0.10716310143470764
0.02635522373020649
0.013027227483689785
-0.051898349076509476
-0.12044423073530197
0.08193039894104004
-0.0630289614200592
0.12618401646614075
0.05564671754837036
-0.0013565587578341365
-0.0989796593785286
0.0037187233101576567
0.07670196890830994
0.006031447555869818
-0.1323767453432083
0.06737183779478073
0.041611198335886
-0.050850700587034225
-0.14456592500209808
0.1272144764661789
0.07630877941846848
-0.06065540388226509
-0.058813367038965225
0.05446724221110344
-0.1100858598947525
0.09326355904340744
0.0689043402671814
0.113429956138134
-0.09288474172353745
0.09018789231777191
0.1284579336643219
-0.007868125103414059
0.09966965764760971
0.04435626044869423
-0.13101361691951752
0.019551049917936325
0.11300218850374222
-0.10159941762685776
-0.11613308638334274
-0.0972350537776947
-0.02102520689368248
0.13720270991325378
0.03516841307282448
0.09494755417108536
0.048066310584545135
-0.07049878686666489
0.05309121683239937
0.07300350815057755
-0.06669832766056061
-0.14242003858089447
-0.08204782754182816
0.08961471170186996
-0.04405195266008377
0.01711190491914749
0.0223818551748991
0.00138254149351269
0.09625066816806793
0.0002839457301888615
-0.13774387538433075
0.01678626611828804
-0.10616497695446014
-0.05516067519783974
0.12860502302646637
0.05205608159303665
-0.08288533985614777
-0.06554727256298065
-0.10857637226581573
-0.030929483473300934
-0.0691969022154808
0.09440641105175018
-0.1454501748085022
-4.8026442527770996e-05
0.10821586847305298
-0.12407262623310089
-0.1066303625702858
0.11195868253707886
-0.09610272943973541
0.010401889681816101
-0.1390475630760193
-0.0328395739197731
-0.05366534739732742
-0.07228025794029236
-0.03806765377521515
-0.13682855665683746
0.08285602927207947
0.14564290642738342
0.08254678547382355
0.04055260121822357
0.1295713186264038
0.01903250813484192
0.029323143884539604
-0.0922609344124794
-0.008431068621575832
-0.05375341325998306
0.12297911196947098
-0.003281289478763938
-0.12391240149736404
0.11343743652105331
0.03323560953140259
0.029643408954143524
0.02849688194692135
-0.13775089383125305
-0.10112128406763077
0.08010965585708618
0.083545982837677
0.03259841352701187
0.03111284039914608
-0.12396245449781418
0.1390562504529953
-0.06633196026086807
0.05356866866350174
0.058586448431015015
0.1218603253364563
0.05225113034248352
0.09353474527597427
-0.1279001384973526
0.10517489910125732
0.009898483753204346
0.08973649144172668
-0.031528621912002563
0.04853999614715576
-0.10898444801568985
-0.10302688181400299
0.054885879158973694
-0.07214184105396271
-0.08921067416667938
0.07999441027641296
-0.014406830072402954
0.037303224205970764
0.025717124342918396
0.05615183711051941
-0.08504237979650497
-0.006121888756752014
0.10516706109046936
-0.057191796600818634
-0.03163538873195648
0.043732017278671265
0.07543055713176727
-0.08497974276542664
-0.12692534923553467
-0.07342524826526642
0.11591187119483948
0.006640449166297913
0.09633427858352661
-0.002903282642364502
0.13698911666870117
-0.008989140391349792
0.10580447316169739
0.04738666117191315
0.09020665287971497
-0.10171189904212952
-0.1083957776427269
-0.1282532960176468
0.02700890600681305
0.08310237526893616
0.08933621644973755
-0.027337096631526947
0.04032464325428009
-0.007645770907402039
-0.03532876819372177
-0.04199285805225372
-0.10529398918151855
0.008568897843360901
0.10388016700744629
-0.03084271401166916
0.09260250627994537
-0.005335122346878052
-0.08654362708330154
-0.09177888929843903
0.0035560529213398695
-0.13842688500881195
0.10821868479251862
0.10843101143836975
-0.07673051953315735
0.0914558544754982
0.013706851750612259
0.10558944195508957
-0.1224324032664299
-0.01841297186911106
-0.08411910384893417
0.018557963892817497
0.10891640186309814
0.03817443549633026
-0.117444708943367
0.028139717876911163
0.13016387820243835
-0.14468447864055634
-0.1215609461069107
0.0042914096266031265
-0.06470965594053268
-0.14779071509838104
0.025299444794654846
-0.021250393241643906
0.06469391286373138
0.019099416211247444
-0.019128533080220222
-0.043163001537323
-0.1000063493847847
0.13683585822582245
0.05702715739607811
0.10372290015220642
-0.14690396189689636
-0.09298690408468246
-0.025770865380764008
-0.13112154603004456
-0.03490166366100311
-0.10258549451828003
-0.06998883932828903
0.12386602908372879
-0.024528447538614273
0.09536314010620117
0.03346944972872734
-0.06151333078742027
-0.087544284760952
-0.08212929964065552
-0.006153735797852278
0.05206235870718956
0.07132589817047119
-0.040268201380968094
0.14744313061237335
0.004518819972872734
0.13305702805519104
0.1379772573709488
0.006345806177705526
0.08108650892972946
-0.08703586459159851
-0.1149485856294632
0.09093549102544785
-0.09434755891561508
0.13456270098686218
-0.032094888389110565
-0.13077466189861298
0.06557434797286987
0.11525765061378479
0.10312600433826447
0.04897497966885567
-0.06982052326202393
0.07107138633728027
0.0916513130068779
-0.11099748313426971
-0.11067170649766922
-0.13741280138492584
-0.11066795885562897
0.06880618631839752
0.06089480221271515
0.12403560429811478
-0.04315299913287163
0.012194623239338398
0.02560432441532612
-0.09851023554801941
-0.1143026053905487
0.04892789572477341
-0.12364918738603592
-0.06552407145500183
-0.041100841015577316
-0.07259566336870193
0.011105585843324661
0.13494819402694702
0.03749234974384308
-0.04234948754310608
-0.13241802155971527
0.026079049333930016
0.09318707138299942
0.08310628682374954
0.015164618380367756
-0.027250899001955986
-0.08846290409564972
-0.0017587384209036827
0.03318433463573456
-0.062203459441661835
-0.07733427733182907
-0.10202154517173767
-0.014851882122457027
-0.1603933870792389
0.011267310939729214
0.020015563815832138
-0.04668563976883888
0.09367275983095169
0.08500603586435318
0.06395339965820312
-0.11537152528762817
0.05511171743273735
0.05401439219713211
0.048444561660289764
0.05926745384931564
0.16010195016860962
0.08637543767690659
0.14426103234291077
0.0799420177936554
0.08164262771606445
-0.15081828832626343
0.14411532878875732
0.011496203020215034
-0.1524534821510315
-0.07627055794000626
0.05329671502113342
-0.03022177331149578
-0.01699567399919033
0.004251350648701191
0.031188353896141052
0.13112083077430725
0.0398796908557415
0.10100343823432922
0.11219317466020584
-0.11976561695337296
-0.10714306682348251
-0.0637311264872551
0.021516267210245132
0.06342098116874695
0.13236036896705627
0.029158251360058784
0.11367835849523544
-0.2071692943572998
-0.05061690881848335
-0.15040233731269836
0.02658282220363617
-0.09244074672460556
0.00933731161057949
-0.09245644509792328
-0.11431080847978592
0.12474881112575531
0.08052300661802292
0.07867874950170517
0.040322694927453995
0.10450438410043716
-0.05145910754799843
-0.14294198155403137
-0.09032297134399414
-0.1228240430355072
0.024870172142982483
0.1265229433774948
0.056930702179670334
9.518203296465799e-05
-0.05290218070149422
-0.030170029029250145
-0.06092489883303642
0.13386842608451843
-0.07992995530366898
-0.10470990836620331
0.11160191148519516
0.10799974948167801
-0.07704316824674606
-0.12220139801502228
-0.0651809573173523
-0.034704480320215225
0.08683683723211288
0.0038154113572090864
0.08752869069576263
-0.0789993405342102
0.12939676642417908
0.09750612080097198
0.09083680808544159
0.043655991554260254
-0.10089783370494843
-0.008224084973335266
0.09558959305286407
-0.055974431335926056
-0.026214703917503357
-0.08889593929052353
-0.09728218615055084
0.1299687623977661
0.1387304961681366
0.020348742604255676
-0.0961136519908905
0.11890029907226562
0.12279245257377625
0.02902120351791382
-0.08624231815338135
-0.029483355581760406
0.024188116192817688
-0.01069919764995575
-0.008410736918449402
0.12870317697525024
-0.07332199811935425
0.07130719721317291
-0.009198561310768127
0.05092578008770943
0.07843925058841705
0.13655607402324677
-0.03698819875717163
0.040827445685863495
0.008850334212183952
-0.010767383500933647
-0.12325119972229004
-0.12975521385669708
-0.058289624750614166
0.05599036067724228
-0.11232604086399078
0.10630674660205841
-0.0992027148604393
0.12236256897449493
0.09460800886154175
0.014883441850543022
-0.017207950353622437
-0.04699369892477989
-0.014985992573201656
-0.09021840244531631
0.11636806279420853
-0.09090904891490936
-0.11112075299024582
0.021502535790205002
-0.119233138859272
0.12626740336418152
0.02778203785419464
0.010173186659812927
-0.01797713339328766
-0.07806522399187088
-0.07525476068258286
-0.04185573011636734
-0.10854122042655945
-0.0839044451713562
0.1024027019739151
-0.02078661322593689
-0.016824200749397278
0.11188825964927673
0.11337587237358093
-0.13652867078781128
-0.12621721625328064
-0.13827450573444366
-0.04693671315908432
-0.03225455433130264
-0.02351483702659607
0.041526541113853455
0.04765860736370087
0.01589071750640869
-0.030399620532989502
0.10946044325828552
0.05719691514968872
0.0473373606801033
-0.12309260666370392
-0.061285559087991714
-0.09196338057518005
0.08487117290496826
-0.026544738560914993
0.1096649169921875
0.0815049409866333
-0.06684638559818268
-0.06310141086578369
0.11575979739427567
-0.04600217193365097
0.006757273338735104
-0.08809486031532288
-0.13033027946949005
-0.015126843005418777
-0.008054443635046482
0.04721124470233917
-0.13554197549819946
-0.0780131071805954
-0.14911460876464844
-0.00045100587885826826
0.09970077872276306
-0.020169572904706
0.0771193727850914
0.07318877428770065
0.08337143808603287
0.12749268114566803
-0.05414557829499245
0.11608859151601791
0.007287499960511923
0.011095385998487473
0.07761939615011215
-0.007744201924651861
0.1336286962032318
0.08449923247098923
0.022951478138566017
-0.05381248891353607
0.06785386800765991
0.017965082079172134
-0.023537201806902885
0.026283694431185722
-0.13833938539028168
0.09166373312473297
0.05104745551943779
0.10038016736507416
-0.04989653453230858
0.04990233853459358
-0.08670701831579208
-0.06280498951673508
-0.10037783533334732
0.1267615109682083
-0.10835970938205719
-0.03220982849597931
-0.09403948485851288
0.04338584840297699
0.1280427873134613
-0.04417761415243149
-0.10817299783229828
0.02932088077068329
0.020828381180763245
0.00035628676414489746
0.047999873757362366
0.05071216821670532
-0.06211283802986145
-0.14096544682979584
-0.07230334728956223
0.10956564545631409
0.05137254297733307
-0.04613427072763443
0.12902766466140747
-0.14048653841018677
-0.014803916215896606
-0.12071119248867035
0.14003828167915344
-0.13272449374198914
0.024262472987174988
0.011710777878761292
-0.012108728289604187
0.029530435800552368
-0.05630321800708771
-0.03504171967506409
0.13904038071632385
-0.008516937494277954
-0.022559650242328644
-0.01957571506500244
0.006706103682518005
-0.0845065712928772
-0.10208272188901901
0.012875989079475403
0.14215481281280518
0.09983181953430176
-0.03288043290376663
-0.017539188265800476
0.11606857180595398
0.14487409591674805
0.04897207021713257
-0.027544230222702026
0.12828394770622253
-0.1414622664451599
-0.13621735572814941
-0.13042984902858734
-0.02151397615671158
0.10185611248016357
-0.04185982048511505
0.10681944340467453
0.09953239560127258
0.009213235229253769
0.008160070516169071
0.049313344061374664
-0.027745550498366356
-0.02218342386186123
-0.11418882757425308
0.13857634365558624
-0.03881566971540451
0.05881950259208679
-0.05983038619160652
-0.11633681505918503
-0.04273718595504761
0.11685679852962494
-0.0066573843359947205
0.058376483619213104
-0.047198377549648285
-0.07179321348667145
0.02507970668375492
0.07654418796300888
0.05965806171298027
-0.07543375343084335
-0.1084144115447998
-0.07313338667154312
0.06881698966026306
0.05709625035524368
0.027979087084531784
-0.017005475237965584
-0.03057246096432209
-0.07029721140861511
-0.12885424494743347
-0.02509205788373947
-0.14098794758319855
-0.1063631922006607
0.10196441411972046
0.14398783445358276
-0.09855499863624573
0.06458590924739838
0.02809339202940464
-0.014132222160696983
0.09968416392803192
0.05684136971831322
-0.04682573303580284
0.10686781257390976
-0.12819844484329224
-0.07472456246614456
-0.05776357650756836
-0.09892039746046066
0.13759657740592957
0.08930787444114685
0.16915377974510193
-0.15954193472862244
-0.15745903551578522
-0.19362233579158783
-0.13212554156780243
0.10319895297288895
0.12234804779291153
-0.04879520833492279
0.04742956534028053
0.07540363073348999
0.129566490650177
-0.06979363411664963
0.08725230395793915
0.042786795645952225
-0.20719528198242188
-0.21240369975566864
0.08229890465736389
-0.10332410782575607
0.06720904260873795
0.1454017609357834
-0.1378134787082672
-0.052469056099653244
-0.08106677979230881
0.15259231626987457
0.15458977222442627
-0.02936786785721779
0.10922182351350784
-0.06532777845859528
-0.04340803250670433
-0.04891999438405037
-0.10556758940219879
0.11440865695476532
-0.05751936882734299
-0.04093310981988907
-0.1270044445991516
0.10307706147432327
-0.023519691079854965
0.08050074428319931
0.04637893661856651
-0.13920700550079346
0.0021951431408524513
0.11226703971624374
0.003441320499405265
-0.12466998398303986
-0.06287062168121338
0.06408984959125519
-0.11570252478122711
-0.01258878968656063
0.04388349503278732
-0.12479014694690704
0.06233861669898033
-0.10939717292785645
-0.00392334908246994
0.03126030042767525
0.027565721422433853
0.05404146388173103
-2.5181876480928622e-05
0.016436638310551643
0.03882337361574173
-0.05642193928360939
0.06849052011966705
-0.15653562545776367
0.13822698593139648
0.06782899796962738
0.14215798676013947
0.053702156990766525
0.08163437247276306
0.14917850494384766
0.1459890902042389
-0.007789392955601215
0.045590586960315704
-0.06083112210035324
0.07121677696704865
0.14747700095176697
-0.10332415997982025
-0.03127768263220787
-0.13106855750083923
0.027848321944475174
-0.053346749395132065
-0.11307138204574585
0.105166494846344
0.1372694969177246
0.16351664066314697
0.09510006010532379
0.06140392646193504
0.12525197863578796
-0.1887441724538803
-0.22325842082500458
0.16254422068595886
-0.0714491754770279
-0.08857044577598572
0.07922684401273727
0.006071710493415594
0.11660682410001755
-0.17379340529441833
0.12193535268306732
0.11772527545690536
-0.0625116378068924
-0.10737261921167374
-0.24079403281211853
-0.13582852482795715
0.024305731058120728
-0.026509243994951248
0.0028466328512877226
-0.011398836970329285
-0.11796993762254715
0.02171759307384491
-0.034114494919776917
-0.05283564329147339
-0.11366444826126099
-0.13464923202991486
0.002272292971611023
-0.12515000998973846
0.11576750874519348
-0.05606064200401306
-0.01505434513092041
-0.02130962908267975
0.07207691669464111
0.03465944528579712
-0.11924221366643906
-0.11811447143554688
-0.0651051476597786
-0.12642817199230194
0.10753890872001648
0.029401972889900208
0.012984350323677063
0.013121604919433594
-0.08562503010034561
0.07489429414272308
0.005818694829940796
-0.13620412349700928
-0.09452439099550247
-0.1478659212589264
0.02801315300166607
-0.10632529109716415
0.11464686691761017
0.10872268676757812
-0.07607027143239975
0.1505907028913498
0.034702371805906296
0.03459787741303444
-0.0931771770119667
-0.04350906237959862
-0.049216948449611664
-0.07214193046092987
-0.05667262151837349
0.01875830814242363
-0.044550489634275436
0.027345050126314163
0.1383160501718521
0.04247863590717316
0.056548427790403366
-0.023420538753271103
0.025880655273795128
-0.007016704883426428
0.06755475699901581
0.020565561950206757
-0.05993058532476425
-0.08896183222532272
0.03661755099892616
-0.12352880835533142
-0.01532856933772564
0.007644923869520426
0.06115533784031868
0.022459741681814194
0.008369195275008678
0.006231885403394699
0.050513856112957
-0.028386281803250313
0.07017655670642853
-0.09225854277610779
0.04646507650613785
0.043816082179546356
-0.0453328900039196
0.027397559955716133
-0.13221900165081024
-0.099452443420887
-0.08487414568662643
0.08172904700040817
-0.06947658956050873
-0.08129473030567169
-0.13068290054798126
-0.08595123887062073
0.048661813139915466
-0.12099653482437134
-0.09891551733016968
-0.07431814819574356
-0.10120874643325806
-0.057149410247802734
-0.003552675247192383
0.005470693111419678
0.05978959798812866
0.05917881429195404
0.1323317587375641
0.10360340774059296
-0.0823068916797638
-0.087094247341156
-0.134098082780838
0.05992160737514496
0.1042356789112091
-0.00468754768371582
-0.13982246816158295
0.13080140948295593
-0.10155181586742401
0.07957571744918823
-0.10516173392534256
-0.006941124796867371
0.12210580706596375
0.11375696212053299
-0.10211186110973358
0.10827220976352692
-0.11635879427194595
-0.12195916473865509
0.10210589319467545
-0.10414601117372513
0.035431817173957825
-0.03272909298539162
0.12695200741291046
-0.05799566209316254
0.012287945486605167
-0.0028006741777062416
-0.017437828704714775
0.05812560021877289
0.02728777565062046
0.07091223448514938
-0.07309353351593018
0.0865691751241684
-0.03928758203983307
0.010660156607627869
-0.06660490483045578
0.13972297310829163
-0.03194485604763031
0.10103091597557068
-0.10437416285276413
-0.1272634118795395
-0.004252464510500431
-0.025227325037121773
0.12904904782772064
0.013020354323089123
-0.06486506760120392
-0.017398769035935402
0.12063640356063843
0.07682979851961136
-0.02215665765106678
-0.04850151389837265
0.1012110784649849
0.00772916991263628
0.035166360437870026
0.003283531405031681
-0.12283485382795334
-0.12124573439359665
-0.005195761565119028
-0.046265557408332825
-0.09800780564546585
-0.11054850369691849
-0.09946154803037643
0.11887744069099426
0.03871568664908409
0.0002866503782570362
-0.12881582975387573
-0.09538301825523376
0.05273875594139099
-0.053887754678726196
0.12199175357818604
0.09062903374433517
-0.04094785451889038
0.0940575897693634
-0.027767622843384743
0.1274726390838623
0.11749283224344254
-0.03184012696146965
-0.13451799750328064
0.1171567291021347
0.07328158617019653
-0.14996986091136932
