0.031217364594340324
-0.0045143659226596355
-0.006002963986247778
0.0
0.04175698384642601
-0.002691499888896942
0.0
0.029031921178102493
-0.0060001858510077
-0.005555266048759222
-0.006004741415381432
-0.004900282248854637
-0.017715511843562126
0.0
-0.00371036515571177
-0.006004799623042345
-0.0060038575902581215
-0.0068825241178274155
-0.005987624637782574
-0.006004048511385918
0.03763190656900406
0.002175317145884037
-0.00438840314745903
0.0
-0.03573126345872879
-0.006004595197737217
0.0
-0.006004525814205408
-0.006003046873956919
-0.0060039120726287365
-0.005041919182986021
-0.0030694978777319193
0.04541538655757904
-0.014816474169492722
0.009056782349944115
-0.00600445969030261
0.03218487277626991
0.0
-0.006004711147397757
-0.006004770752042532
-0.006004644092172384
-0.005996020510792732
-0.0027343060355633497
-0.0022593147587031126
0.03404475003480911
0.0
0.0
0.01390849333256483
-0.003950798884034157
0.03180771693587303
-0.0055541652254760265
-0.005998356733471155
-0.005621673539280891
-0.006003825459629297
-0.01576339267194271
-0.00600323686376214
-0.004310965538024902
-0.0060036927461624146
-0.00600259518250823
-0.00678247818723321
0.0
0.00030507438350468874
0.0
0.0
-0.007370207458734512
-0.006000458262860775
0.0
0.0
-0.006302088499069214
-0.006003980524837971
0.00573671655729413
0.0
-0.0045288801193237305
-0.0009477376588620245
-0.006004863418638706
-0.0030702350195497274
-0.0035844123922288418
0.0
0.019846953451633453
-0.006004722788929939
-0.025496959686279297
0.0
0.0
-0.006004675291478634
0.0
0.0
-0.006561738904565573
0.0
-0.00728557538241148
0.0426010824739933
0.0
-0.0049370969645679
0.013012307696044445
-0.054088059812784195
0.0006581422057934105
0.0
-0.02267688326537609
-0.005677508190274239
-0.007226636633276939
-0.005344158969819546
-0.007132726721465588
-0.006004501134157181
-0.021745732054114342
-0.008117428980767727
0.0
0.023696640506386757
-0.03482086583971977
-0.04097045585513115
-0.006004447117447853
0.0
0.0
-0.005220707971602678
-0.004769858904182911
0.0
-0.007553390227258205
-0.005000053904950619
-0.0024384688585996628
-0.005224838387221098
0.0
0.0343281552195549
-0.005217038094997406
-0.03611641749739647
0.0
-0.04776090756058693
-0.005998312495648861
-0.006004796829074621
0.011134966276586056
-0.0005944951553829014
-0.006004837341606617
0.0
-0.004340364597737789
0.041760362684726715
-0.006004677154123783
0.0
-0.006004507187753916
0.0
-0.005996083840727806
-0.0008207705104723573
0.0
-0.03236859291791916
0.0
0.008701149374246597
-0.016788655892014503
-0.00600428506731987
-0.006003923248499632
0.0
-0.006004387978464365
-0.006707443855702877
-0.00600339425727725
-0.00599927082657814
-0.0033823775593191385
0.0
-0.0060001336969435215
-0.006004482042044401
-0.006067185662686825
-0.003136115614324808
0.0
-0.006005113944411278
0.0
0.0
-0.004319048952311277
-0.004277483094483614
-0.0038681961596012115
-0.003054919885471463
-0.03556854650378227
-0.013652029447257519
-0.005997182801365852
0.0
-0.005944134201854467
0.0
-0.00600453931838274
-0.001951598096638918
0.0
0.0
-0.005104640033096075
-0.00495227100327611
-0.0030265427194535732
-0.006004879716783762
0.022949891164898872
-0.02417404018342495
0.0
-0.007650804705917835
-0.00419159559533
0.0
-0.006004904396831989
-0.006003770511597395
-0.006648242007941008
-0.002020143438130617
0.0
-0.006003427319228649
-0.00599895603954792
0.0
0.0
-0.0060050468891859055
0.02365950495004654
-0.006000933237373829
-0.004196473862975836
-0.006004968658089638
0.0
0.0
0.0
-0.0060034142807126045
0.0
-0.01233375258743763
-0.00260066706687212
-0.017140956595540047
0.006560576148331165
-0.0050355722196400166
0.0
0.04238860309123993
-0.019599877297878265
-0.005222643259912729
0.0
-0.012090127915143967
-0.03515137359499931
-0.005341495852917433
0.01357662957161665
0.014710540883243084
0.030953487381339073
-0.006004390772432089
-0.00408168276771903
-3.50157824868802e-05
0.0
-0.0009053943213075399
-0.006004534661769867
-0.0059777311980724335
-0.0031085063237696886
0.03272460028529167
-0.0060045537538826466
0.02957645058631897
-0.006002520211040974
0.0
0.0
-0.016124751418828964
-0.006004770752042532
0.009987746365368366
-0.006004951428622007
-0.01537544559687376
-0.006004442926496267
-0.0060042343102395535
-0.00600437493994832
0.0011400390649214387
0.0
0.0
-0.006004403345286846
0.03397059068083763
-0.006738864816725254
-0.006002084817737341
-0.006003833841532469
-0.006003665737807751
-0.004385014995932579
-0.0018152010161429644
-0.006004985887557268
-0.006000878755003214
-0.0038725489284843206
0.01881181076169014
